digraph Tree {
0 [label="p_does <= 0.5000\ngini = 0.8280385\nsamples = 2000", shape="box"] ;
1 [label="p_who <= 0.5000\ngini = 0.806901722986\nsamples = 1716", shape="box"] ;
0 -> 1 ;
2 [label="p_where <= 0.5000\ngini = 0.802682245963\nsamples = 1574", shape="box"] ;
1 -> 2 ;
3 [label="p_how_many <= 0.5000\ngini = 0.800407989166\nsamples = 1501", shape="box"] ;
2 -> 3 ;
4 [label="p_which <= 0.5000\ngini = 0.801074949618\nsamples = 1451", shape="box"] ;
3 -> 4 ;
5 [label="p_city <= 0.5000\ngini = 0.797180074572\nsamples = 1292", shape="box"] ;
4 -> 5 ;
6 [label="p_how <= 0.5000\ngini = 0.794563003408\nsamples = 1262", shape="box"] ;
5 -> 6 ;
7 [label="p_when <= 0.5000\ngini = 0.797439438897\nsamples = 1167", shape="box"] ;
6 -> 7 ;
8 [label="p_what <= 0.5000\ngini = 0.794330018012\nsamples = 1130", shape="box"] ;
7 -> 8 ;
9 [label="p_like <= 0.5000\ngini = 0.743199091024\nsamples = 445", shape="box"] ;
8 -> 9 ;
10 [label="p_why <= 0.5000\ngini = 0.731006692431\nsamples = 412", shape="box"] ;
9 -> 10 ;
11 [label="p_person <= 0.5000\ngini = 0.726946163759\nsamples = 387", shape="box"] ;
10 -> 11 ;
12 [label="p_with <= 0.5000\ngini = 0.730299963123\nsamples = 357", shape="box"] ;
11 -> 12 ;
13 [label="p_many <= 0.5000\ngini = 0.728777975163\nsamples = 343", shape="box"] ;
12 -> 13 ;
14 [label="p_height <= 0.5000\ngini = 0.72669550173\nsamples = 340", shape="box"] ;
13 -> 14 ;
15 [label="p_age <= 0.5000\ngini = 0.725532495663\nsamples = 337", shape="box"] ;
14 -> 15 ;
16 [label="p_is <= 0.5000\ngini = 0.724961421205\nsamples = 326", shape="box"] ;
15 -> 16 ;
17 [label="gini = 0.5511\nsamples = 15\nvalue = [ 0.  6.  0.  1.  8.  0.]", shape="box"] ;
16 -> 17 ;
18 [label="p_doing <= 0.5000\ngini = 0.729128110752\nsamples = 311", shape="box"] ;
16 -> 18 ;
19 [label="p_mother <= 0.5000\ngini = 0.730051004912\nsamples = 309", shape="box"] ;
18 -> 19 ;
20 [label="p_tall <= 0.5000\ngini = 0.729338842975\nsamples = 308", shape="box"] ;
19 -> 20 ;
21 [label="p_big <= 0.5000\ngini = 0.728898980361\nsamples = 307", shape="box"] ;
20 -> 21 ;
22 [label="gini = 0.7295\nsamples = 305\nvalue = [   0.   90.   49.   62.  104.    0.]", shape="box"] ;
21 -> 22 ;
23 [label="gini = 0.5000\nsamples = 2\nvalue = [ 0.  1.  0.  0.  1.  0.]", shape="box"] ;
21 -> 23 ;
24 [label="gini = 0.0000\nsamples = 1\nvalue = [ 0.  0.  0.  1.  0.  0.]", shape="box"] ;
20 -> 24 ;
25 [label="gini = 0.0000\nsamples = 1\nvalue = [ 0.  0.  1.  0.  0.  0.]", shape="box"] ;
19 -> 25 ;
26 [label="gini = 0.0000\nsamples = 2\nvalue = [ 0.  0.  0.  0.  2.  0.]", shape="box"] ;
18 -> 26 ;
27 [label="p_is <= 0.5000\ngini = 0.578512396694\nsamples = 11", shape="box"] ;
15 -> 27 ;
28 [label="gini = 0.0000\nsamples = 1\nvalue = [ 0.  0.  0.  0.  1.  0.]", shape="box"] ;
27 -> 28 ;
29 [label="gini = 0.5800\nsamples = 10\nvalue = [ 0.  0.  1.  5.  4.  0.]", shape="box"] ;
27 -> 29 ;
30 [label="gini = 0.0000\nsamples = 3\nvalue = [ 0.  0.  0.  3.  0.  0.]", shape="box"] ;
14 -> 30 ;
31 [label="gini = 0.0000\nsamples = 3\nvalue = [ 0.  0.  3.  0.  0.  0.]", shape="box"] ;
13 -> 31 ;
32 [label="p_is <= 0.5000\ngini = 0.438775510204\nsamples = 14", shape="box"] ;
12 -> 32 ;
33 [label="gini = 0.0000\nsamples = 1\nvalue = [ 0.  1.  0.  0.  0.  0.]", shape="box"] ;
32 -> 33 ;
34 [label="gini = 0.3550\nsamples = 13\nvalue = [  0.   0.   0.  10.   3.   0.]", shape="box"] ;
32 -> 34 ;
35 [label="p_with <= 0.5000\ngini = 0.291111111111\nsamples = 30", shape="box"] ;
11 -> 35 ;
36 [label="gini = 0.1964\nsamples = 28\nvalue = [  0.  25.   0.   1.   2.   0.]", shape="box"] ;
35 -> 36 ;
37 [label="gini = 0.0000\nsamples = 2\nvalue = [ 0.  0.  0.  2.  0.  0.]", shape="box"] ;
35 -> 37 ;
38 [label="p_is <= 0.5000\ngini = 0.0768\nsamples = 25", shape="box"] ;
10 -> 38 ;
39 [label="gini = 0.0000\nsamples = 18\nvalue = [  0.   0.   0.  18.   0.   0.]", shape="box"] ;
38 -> 39 ;
40 [label="gini = 0.2449\nsamples = 7\nvalue = [ 0.  0.  1.  6.  0.  0.]", shape="box"] ;
38 -> 40 ;
41 [label="p_with <= 0.5000\ngini = 0.306703397612\nsamples = 33", shape="box"] ;
9 -> 41 ;
42 [label="p_doing <= 0.5000\ngini = 0.263671875\nsamples = 32", shape="box"] ;
41 -> 42 ;
43 [label="p_age <= 0.5000\ngini = 0.224765868887\nsamples = 31", shape="box"] ;
42 -> 43 ;
44 [label="gini = 0.1855\nsamples = 29\nvalue = [  0.   0.  26.   0.   3.   0.]", shape="box"] ;
43 -> 44 ;
45 [label="gini = 0.5000\nsamples = 2\nvalue = [ 0.  0.  1.  0.  1.  0.]", shape="box"] ;
43 -> 45 ;
46 [label="gini = 0.0000\nsamples = 1\nvalue = [ 0.  0.  0.  0.  1.  0.]", shape="box"] ;
42 -> 46 ;
47 [label="gini = 0.0000\nsamples = 1\nvalue = [ 0.  0.  0.  1.  0.  0.]", shape="box"] ;
41 -> 47 ;
48 [label="p_is <= 0.5000\ngini = 0.794207469764\nsamples = 685", shape="box"] ;
8 -> 48 ;
49 [label="p_age <= 0.5000\ngini = 0.734584199097\nsamples = 253", shape="box"] ;
48 -> 49 ;
50 [label="p_mean <= 0.5000\ngini = 0.73072\nsamples = 250", shape="box"] ;
49 -> 50 ;
51 [label="p_mother <= 0.5000\ngini = 0.729546045786\nsamples = 248", shape="box"] ;
50 -> 51 ;
52 [label="p_tall <= 0.5000\ngini = 0.728056516252\nsamples = 247", shape="box"] ;
51 -> 52 ;
53 [label="p_called <= 0.5000\ngini = 0.727113490647\nsamples = 246", shape="box"] ;
52 -> 53 ;
54 [label="p_father <= 0.5000\ngini = 0.726130778842\nsamples = 245", shape="box"] ;
53 -> 54 ;
55 [label="p_with <= 0.5000\ngini = 0.725107497984\nsamples = 244", shape="box"] ;
54 -> 55 ;
56 [label="p_like <= 0.5000\ngini = 0.723277098559\nsamples = 242", shape="box"] ;
55 -> 56 ;
57 [label="p_stand_for <= 0.5000\ngini = 0.722577090615\nsamples = 241", shape="box"] ;
56 -> 57 ;
58 [label="p_big <= 0.5000\ngini = 0.721840277778\nsamples = 240", shape="box"] ;
57 -> 58 ;
59 [label="p_weight <= 0.5000\ngini = 0.723201624621\nsamples = 239", shape="box"] ;
58 -> 59 ;
60 [label="p_expansion <= 0.5000\ngini = 0.7245604124\nsamples = 238", shape="box"] ;
59 -> 60 ;
61 [label="p_many <= 0.5000\ngini = 0.725916430771\nsamples = 237", shape="box"] ;
60 -> 61 ;
62 [label="gini = 0.7254\nsamples = 234\nvalue = [   0.   36.   31.   44.  102.   21.]", shape="box"] ;
61 -> 62 ;
63 [label="gini = 0.6667\nsamples = 3\nvalue = [ 0.  0.  1.  1.  1.  0.]", shape="box"] ;
61 -> 63 ;
64 [label="gini = 0.0000\nsamples = 1\nvalue = [ 0.  0.  0.  0.  1.  0.]", shape="box"] ;
60 -> 64 ;
65 [label="gini = 0.0000\nsamples = 1\nvalue = [ 0.  0.  0.  0.  1.  0.]", shape="box"] ;
59 -> 65 ;
66 [label="gini = 0.0000\nsamples = 1\nvalue = [ 0.  0.  0.  0.  1.  0.]", shape="box"] ;
58 -> 66 ;
67 [label="gini = 0.0000\nsamples = 1\nvalue = [ 0.  0.  0.  1.  0.  0.]", shape="box"] ;
57 -> 67 ;
68 [label="gini = 0.0000\nsamples = 1\nvalue = [ 0.  0.  0.  1.  0.  0.]", shape="box"] ;
56 -> 68 ;
69 [label="gini = 0.5000\nsamples = 2\nvalue = [ 0.  0.  1.  1.  0.  0.]", shape="box"] ;
55 -> 69 ;
70 [label="gini = 0.0000\nsamples = 1\nvalue = [ 0.  1.  0.  0.  0.  0.]", shape="box"] ;
54 -> 70 ;
71 [label="gini = 0.0000\nsamples = 1\nvalue = [ 0.  1.  0.  0.  0.  0.]", shape="box"] ;
53 -> 71 ;
72 [label="gini = 0.0000\nsamples = 1\nvalue = [ 0.  1.  0.  0.  0.  0.]", shape="box"] ;
52 -> 72 ;
73 [label="gini = 0.0000\nsamples = 1\nvalue = [ 0.  0.  0.  0.  0.  1.]", shape="box"] ;
51 -> 73 ;
74 [label="gini = 0.0000\nsamples = 2\nvalue = [ 0.  0.  0.  2.  0.  0.]", shape="box"] ;
50 -> 74 ;
75 [label="gini = 0.4444\nsamples = 3\nvalue = [ 0.  0.  1.  0.  0.  2.]", shape="box"] ;
49 -> 75 ;
76 [label="p_big <= 0.5000\ngini = 0.790359224966\nsamples = 432", shape="box"] ;
48 -> 76 ;
77 [label="p_average <= 0.5000\ngini = 0.793416873071\nsamples = 421", shape="box"] ;
76 -> 77 ;
78 [label="p_called <= 0.5000\ngini = 0.794495338981\nsamples = 417", shape="box"] ;
77 -> 78 ;
79 [label="p_mean <= 0.5000\ngini = 0.793967876264\nsamples = 410", shape="box"] ;
78 -> 79 ;
80 [label="p_with <= 0.5000\ngini = 0.794862772695\nsamples = 406", shape="box"] ;
79 -> 80 ;
81 [label="p_mother <= 0.5000\ngini = 0.793775\nsamples = 400", shape="box"] ;
80 -> 81 ;
82 [label="p_much <= 0.5000\ngini = 0.793098033304\nsamples = 399", shape="box"] ;
81 -> 82 ;
83 [label="p_person <= 0.5000\ngini = 0.792404232216\nsamples = 398", shape="box"] ;
82 -> 83 ;
84 [label="p_place <= 0.5000\ngini = 0.791693367765\nsamples = 397", shape="box"] ;
83 -> 84 ;
85 [label="p_tall <= 0.5000\ngini = 0.791156514641\nsamples = 396", shape="box"] ;
84 -> 85 ;
86 [label="p_distance <= 0.5000\ngini = 0.790604069861\nsamples = 395", shape="box"] ;
85 -> 86 ;
87 [label="p_doing <= 0.5000\ngini = 0.790499626375\nsamples = 394", shape="box"] ;
86 -> 87 ;
88 [label="p_age <= 0.5000\ngini = 0.790824155546\nsamples = 393", shape="box"] ;
87 -> 88 ;
89 [label="gini = 0.7917\nsamples = 389\nvalue = [  39.   26.   39.  106.   73.  106.]", shape="box"] ;
88 -> 89 ;
90 [label="gini = 0.6250\nsamples = 4\nvalue = [ 0.  0.  0.  1.  1.  2.]", shape="box"] ;
88 -> 90 ;
91 [label="gini = 0.0000\nsamples = 1\nvalue = [ 0.  0.  0.  1.  0.  0.]", shape="box"] ;
87 -> 91 ;
92 [label="gini = 0.0000\nsamples = 1\nvalue = [ 0.  0.  0.  0.  1.  0.]", shape="box"] ;
86 -> 92 ;
93 [label="gini = 0.0000\nsamples = 1\nvalue = [ 0.  0.  1.  0.  0.  0.]", shape="box"] ;
85 -> 93 ;
94 [label="gini = 0.0000\nsamples = 1\nvalue = [ 0.  0.  1.  0.  0.  0.]", shape="box"] ;
84 -> 94 ;
95 [label="gini = 0.0000\nsamples = 1\nvalue = [ 0.  1.  0.  0.  0.  0.]", shape="box"] ;
83 -> 95 ;
96 [label="gini = 0.0000\nsamples = 1\nvalue = [ 0.  1.  0.  0.  0.  0.]", shape="box"] ;
82 -> 96 ;
97 [label="gini = 0.0000\nsamples = 1\nvalue = [ 0.  1.  0.  0.  0.  0.]", shape="box"] ;
81 -> 97 ;
98 [label="gini = 0.6667\nsamples = 6\nvalue = [ 0.  1.  1.  1.  3.  0.]", shape="box"] ;
80 -> 98 ;
99 [label="gini = 0.3750\nsamples = 4\nvalue = [ 0.  0.  0.  3.  1.  0.]", shape="box"] ;
79 -> 99 ;
100 [label="gini = 0.4490\nsamples = 7\nvalue = [ 0.  1.  0.  1.  5.  0.]", shape="box"] ;
78 -> 100 ;
101 [label="gini = 0.0000\nsamples = 4\nvalue = [ 0.  0.  0.  0.  0.  4.]", shape="box"] ;
77 -> 101 ;
102 [label="gini = 0.1653\nsamples = 11\nvalue = [  0.   0.   0.   0.   1.  10.]", shape="box"] ;
76 -> 102 ;
103 [label="p_what <= 0.5000\ngini = 0.369612856099\nsamples = 37", shape="box"] ;
7 -> 103 ;
104 [label="p_why <= 0.5000\ngini = 0.174817898023\nsamples = 31", shape="box"] ;
103 -> 104 ;
105 [label="p_is <= 0.5000\ngini = 0.124444444444\nsamples = 30", shape="box"] ;
104 -> 105 ;
106 [label="gini = 0.0000\nsamples = 17\nvalue = [  0.   0.   0.   0.   0.  17.]", shape="box"] ;
105 -> 106 ;
107 [label="gini = 0.2604\nsamples = 13\nvalue = [  0.   0.   0.   2.   0.  11.]", shape="box"] ;
105 -> 107 ;
108 [label="gini = 0.0000\nsamples = 1\nvalue = [ 0.  0.  0.  1.  0.  0.]", shape="box"] ;
104 -> 108 ;
109 [label="gini = 0.7778\nsamples = 6\nvalue = [ 0.  2.  1.  1.  1.  1.]", shape="box"] ;
103 -> 109 ;
110 [label="p_how_much <= 0.5000\ngini = 0.550692520776\nsamples = 95", shape="box"] ;
6 -> 110 ;
111 [label="p_what <= 0.5000\ngini = 0.505747126437\nsamples = 87", shape="box"] ;
110 -> 111 ;
112 [label="p_tall <= 0.5000\ngini = 0.408267905784\nsamples = 79", shape="box"] ;
111 -> 112 ;
113 [label="p_big <= 0.5000\ngini = 0.377770083102\nsamples = 76", shape="box"] ;
112 -> 113 ;
114 [label="p_describe <= 0.5000\ngini = 0.353907962016\nsamples = 74", shape="box"] ;
113 -> 114 ;
115 [label="p_when <= 0.5000\ngini = 0.336273221993\nsamples = 73", shape="box"] ;
114 -> 115 ;
116 [label="p_is <= 0.5000\ngini = 0.311428571429\nsamples = 70", shape="box"] ;
115 -> 116 ;
117 [label="p_age <= 0.5000\ngini = 0.249895876718\nsamples = 49", shape="box"] ;
116 -> 117 ;
118 [label="p_place <= 0.5000\ngini = 0.23156899811\nsamples = 46", shape="box"] ;
117 -> 118 ;
119 [label="p_like <= 0.5000\ngini = 0.236049382716\nsamples = 45", shape="box"] ;
118 -> 119 ;
120 [label="gini = 0.2407\nsamples = 44\nvalue = [  0.   0.   0.  38.   1.   5.]", shape="box"] ;
119 -> 120 ;
121 [label="gini = 0.0000\nsamples = 1\nvalue = [ 0.  0.  0.  1.  0.  0.]", shape="box"] ;
119 -> 121 ;
122 [label="gini = 0.0000\nsamples = 1\nvalue = [ 0.  0.  0.  1.  0.  0.]", shape="box"] ;
118 -> 122 ;
123 [label="gini = 0.4444\nsamples = 3\nvalue = [ 0.  0.  0.  2.  0.  1.]", shape="box"] ;
117 -> 123 ;
124 [label="p_with <= 0.5000\ngini = 0.430839002268\nsamples = 21", shape="box"] ;
116 -> 124 ;
125 [label="gini = 0.4753\nsamples = 18\nvalue = [  0.   0.   0.  12.   1.   5.]", shape="box"] ;
124 -> 125 ;
126 [label="gini = 0.0000\nsamples = 3\nvalue = [ 0.  0.  0.  3.  0.  0.]", shape="box"] ;
124 -> 126 ;
127 [label="gini = 0.4444\nsamples = 3\nvalue = [ 0.  0.  0.  1.  0.  2.]", shape="box"] ;
115 -> 127 ;
128 [label="gini = 0.0000\nsamples = 1\nvalue = [ 0.  1.  0.  0.  0.  0.]", shape="box"] ;
114 -> 128 ;
129 [label="gini = 0.0000\nsamples = 2\nvalue = [ 0.  0.  0.  0.  0.  2.]", shape="box"] ;
113 -> 129 ;
130 [label="gini = 0.0000\nsamples = 3\nvalue = [ 0.  0.  0.  0.  0.  3.]", shape="box"] ;
112 -> 130 ;
131 [label="gini = 0.5938\nsamples = 8\nvalue = [ 0.  3.  1.  0.  4.  0.]", shape="box"] ;
111 -> 131 ;
132 [label="gini = 0.2188\nsamples = 8\nvalue = [ 0.  0.  0.  0.  1.  7.]", shape="box"] ;
110 -> 132 ;
133 [label="p_what <= 0.5000\ngini = 0.184444444444\nsamples = 30", shape="box"] ;
5 -> 133 ;
134 [label="gini = 0.4938\nsamples = 9\nvalue = [ 0.  0.  6.  2.  1.  0.]", shape="box"] ;
133 -> 134 ;
135 [label="gini = 0.0000\nsamples = 21\nvalue = [  0.   0.  21.   0.   0.   0.]", shape="box"] ;
133 -> 135 ;
136 [label="p_place <= 0.5000\ngini = 0.628139709663\nsamples = 159", shape="box"] ;
4 -> 136 ;
137 [label="p_is <= 0.5000\ngini = 0.51851433094\nsamples = 133", shape="box"] ;
136 -> 137 ;
138 [label="p_city <= 0.5000\ngini = 0.599489795918\nsamples = 28", shape="box"] ;
137 -> 138 ;
139 [label="p_mean <= 0.5000\ngini = 0.573388203018\nsamples = 27", shape="box"] ;
138 -> 139 ;
140 [label="p_big <= 0.5000\ngini = 0.565088757396\nsamples = 26", shape="box"] ;
139 -> 140 ;
141 [label="p_age <= 0.5000\ngini = 0.5536\nsamples = 25", shape="box"] ;
140 -> 141 ;
142 [label="p_with <= 0.5000\ngini = 0.578449905482\nsamples = 23", shape="box"] ;
141 -> 142 ;
143 [label="p_what <= 0.5000\ngini = 0.590909090909\nsamples = 22", shape="box"] ;
142 -> 143 ;
144 [label="gini = 0.6032\nsamples = 21\nvalue = [  0.   7.   1.   0.  11.   2.]", shape="box"] ;
143 -> 144 ;
145 [label="gini = 0.0000\nsamples = 1\nvalue = [ 0.  0.  0.  0.  1.  0.]", shape="box"] ;
143 -> 145 ;
146 [label="gini = 0.0000\nsamples = 1\nvalue = [ 0.  0.  0.  0.  1.  0.]", shape="box"] ;
142 -> 146 ;
147 [label="gini = 0.0000\nsamples = 2\nvalue = [ 0.  0.  0.  0.  2.  0.]", shape="box"] ;
141 -> 147 ;
148 [label="gini = 0.0000\nsamples = 1\nvalue = [ 0.  1.  0.  0.  0.  0.]", shape="box"] ;
140 -> 148 ;
149 [label="gini = 0.0000\nsamples = 1\nvalue = [ 0.  1.  0.  0.  0.  0.]", shape="box"] ;
139 -> 149 ;
150 [label="gini = 0.0000\nsamples = 1\nvalue = [ 0.  0.  1.  0.  0.  0.]", shape="box"] ;
138 -> 150 ;
151 [label="p_city <= 0.5000\ngini = 0.335600907029\nsamples = 105", shape="box"] ;
137 -> 151 ;
152 [label="p_what <= 0.5000\ngini = 0.323039940828\nsamples = 104", shape="box"] ;
151 -> 152 ;
153 [label="p_like <= 0.5000\ngini = 0.312753322651\nsamples = 103", shape="box"] ;
152 -> 153 ;
154 [label="p_many <= 0.5000\ngini = 0.301999231065\nsamples = 102", shape="box"] ;
153 -> 154 ;
155 [label="p_big <= 0.5000\ngini = 0.290755808254\nsamples = 101", shape="box"] ;
154 -> 155 ;
156 [label="gini = 0.3115\nsamples = 93\nvalue = [  0.   3.   1.   0.  13.  76.]", shape="box"] ;
155 -> 156 ;
157 [label="gini = 0.0000\nsamples = 8\nvalue = [ 0.  0.  0.  0.  0.  8.]", shape="box"] ;
155 -> 157 ;
158 [label="gini = 0.0000\nsamples = 1\nvalue = [ 0.  0.  0.  0.  1.  0.]", shape="box"] ;
154 -> 158 ;
159 [label="gini = 0.0000\nsamples = 1\nvalue = [ 0.  0.  0.  0.  1.  0.]", shape="box"] ;
153 -> 159 ;
160 [label="gini = 0.0000\nsamples = 1\nvalue = [ 0.  0.  0.  0.  1.  0.]", shape="box"] ;
152 -> 160 ;
161 [label="gini = 0.0000\nsamples = 1\nvalue = [ 0.  0.  1.  0.  0.  0.]", shape="box"] ;
151 -> 161 ;
162 [label="gini = 0.0000\nsamples = 26\nvalue = [  0.   0.  26.   0.   0.   0.]", shape="box"] ;
136 -> 162 ;
163 [label="p_is <= 0.5000\ngini = 0.0392\nsamples = 50", shape="box"] ;
3 -> 163 ;
164 [label="gini = 0.0000\nsamples = 37\nvalue = [  0.   0.   0.   0.   0.  37.]", shape="box"] ;
163 -> 164 ;
165 [label="p_with <= 0.5000\ngini = 0.14201183432\nsamples = 13", shape="box"] ;
163 -> 165 ;
166 [label="p_tall <= 0.5000\ngini = 0.165289256198\nsamples = 11", shape="box"] ;
165 -> 166 ;
167 [label="p_age <= 0.5000\ngini = 0.18\nsamples = 10", shape="box"] ;
166 -> 167 ;
168 [label="gini = 0.1975\nsamples = 9\nvalue = [ 0.  0.  1.  0.  0.  8.]", shape="box"] ;
167 -> 168 ;
169 [label="gini = 0.0000\nsamples = 1\nvalue = [ 0.  0.  0.  0.  0.  1.]", shape="box"] ;
167 -> 169 ;
170 [label="gini = 0.0000\nsamples = 1\nvalue = [ 0.  0.  0.  0.  0.  1.]", shape="box"] ;
166 -> 170 ;
171 [label="gini = 0.0000\nsamples = 2\nvalue = [ 0.  0.  0.  0.  0.  2.]", shape="box"] ;
165 -> 171 ;
172 [label="p_is <= 0.5000\ngini = 0.301369863014\nsamples = 73", shape="box"] ;
2 -> 172 ;
173 [label="p_age <= 0.5000\ngini = 0.122788761707\nsamples = 31", shape="box"] ;
172 -> 173 ;
174 [label="p_what <= 0.5000\ngini = 0.0644444444444\nsamples = 30", shape="box"] ;
173 -> 174 ;
175 [label="gini = 0.0000\nsamples = 29\nvalue = [  0.   0.  29.   0.   0.   0.]", shape="box"] ;
174 -> 175 ;
176 [label="gini = 0.0000\nsamples = 1\nvalue = [ 0.  0.  0.  0.  0.  1.]", shape="box"] ;
174 -> 176 ;
177 [label="gini = 0.0000\nsamples = 1\nvalue = [ 0.  0.  0.  1.  0.  0.]", shape="box"] ;
173 -> 177 ;
178 [label="p_place <= 0.5000\ngini = 0.386621315193\nsamples = 42", shape="box"] ;
172 -> 178 ;
179 [label="p_big <= 0.5000\ngini = 0.39875\nsamples = 40", shape="box"] ;
178 -> 179 ;
180 [label="p_tall <= 0.5000\ngini = 0.41135734072\nsamples = 38", shape="box"] ;
179 -> 180 ;
181 [label="p_with <= 0.5000\ngini = 0.417823228634\nsamples = 37", shape="box"] ;
180 -> 181 ;
182 [label="p_age <= 0.5000\ngini = 0.424382716049\nsamples = 36", shape="box"] ;
181 -> 182 ;
183 [label="gini = 0.4310\nsamples = 35\nvalue = [  0.   0.  24.   0.  11.   0.]", shape="box"] ;
182 -> 183 ;
184 [label="gini = 0.0000\nsamples = 1\nvalue = [ 0.  0.  1.  0.  0.  0.]", shape="box"] ;
182 -> 184 ;
185 [label="gini = 0.0000\nsamples = 1\nvalue = [ 0.  0.  1.  0.  0.  0.]", shape="box"] ;
181 -> 185 ;
186 [label="gini = 0.0000\nsamples = 1\nvalue = [ 0.  0.  1.  0.  0.  0.]", shape="box"] ;
180 -> 186 ;
187 [label="gini = 0.0000\nsamples = 2\nvalue = [ 0.  0.  2.  0.  0.  0.]", shape="box"] ;
179 -> 187 ;
188 [label="gini = 0.0000\nsamples = 2\nvalue = [ 0.  0.  2.  0.  0.  0.]", shape="box"] ;
178 -> 188 ;
189 [label="p_how <= 0.5000\ngini = 0.184586391589\nsamples = 142", shape="box"] ;
1 -> 189 ;
190 [label="p_why <= 0.5000\ngini = 0.151228733459\nsamples = 138", shape="box"] ;
189 -> 190 ;
191 [label="p_what <= 0.5000\ngini = 0.139165645479\nsamples = 137", shape="box"] ;
190 -> 191 ;
192 [label="p_is <= 0.5000\ngini = 0.103024299283\nsamples = 131", shape="box"] ;
191 -> 192 ;
193 [label="p_who_was <= 0.5000\ngini = 0.0235260770975\nsamples = 84", shape="box"] ;
192 -> 193 ;
194 [label="p_whom <= 0.5000\ngini = 0.0322493953238\nsamples = 61", shape="box"] ;
193 -> 194 ;
195 [label="p_many <= 0.5000\ngini = 0.0344721452755\nsamples = 57", shape="box"] ;
194 -> 195 ;
196 [label="p_with <= 0.5000\ngini = 0.0357024793388\nsamples = 55", shape="box"] ;
195 -> 196 ;
197 [label="p_age <= 0.5000\ngini = 0.0370238519046\nsamples = 53", shape="box"] ;
196 -> 197 ;
198 [label="p_place <= 0.5000\ngini = 0.0384467512495\nsamples = 51", shape="box"] ;
197 -> 198 ;
199 [label="p_mother <= 0.5000\ngini = 0.0392\nsamples = 50", shape="box"] ;
198 -> 199 ;
200 [label="p_where <= 0.5000\ngini = 0.0399833402749\nsamples = 49", shape="box"] ;
199 -> 200 ;
201 [label="gini = 0.0408\nsamples = 48\nvalue = [  0.  47.   0.   0.   1.   0.]", shape="box"] ;
200 -> 201 ;
202 [label="gini = 0.0000\nsamples = 1\nvalue = [ 0.  1.  0.  0.  0.  0.]", shape="box"] ;
200 -> 202 ;
203 [label="gini = 0.0000\nsamples = 1\nvalue = [ 0.  1.  0.  0.  0.  0.]", shape="box"] ;
199 -> 203 ;
204 [label="gini = 0.0000\nsamples = 1\nvalue = [ 0.  1.  0.  0.  0.  0.]", shape="box"] ;
198 -> 204 ;
205 [label="gini = 0.0000\nsamples = 2\nvalue = [ 0.  2.  0.  0.  0.  0.]", shape="box"] ;
197 -> 205 ;
206 [label="gini = 0.0000\nsamples = 2\nvalue = [ 0.  2.  0.  0.  0.  0.]", shape="box"] ;
196 -> 206 ;
207 [label="gini = 0.0000\nsamples = 2\nvalue = [ 0.  2.  0.  0.  0.  0.]", shape="box"] ;
195 -> 207 ;
208 [label="gini = 0.0000\nsamples = 4\nvalue = [ 0.  4.  0.  0.  0.  0.]", shape="box"] ;
194 -> 208 ;
209 [label="gini = 0.0000\nsamples = 23\nvalue = [  0.  23.   0.   0.   0.   0.]", shape="box"] ;
193 -> 209 ;
210 [label="p_whom <= 0.5000\ngini = 0.233589859665\nsamples = 47", shape="box"] ;
192 -> 210 ;
211 [label="p_age <= 0.5000\ngini = 0.205432098765\nsamples = 45", shape="box"] ;
210 -> 211 ;
212 [label="p_who_was <= 0.5000\ngini = 0.17414818821\nsamples = 43", shape="box"] ;
211 -> 212 ;
213 [label="p_with <= 0.5000\ngini = 0.195290858726\nsamples = 38", shape="box"] ;
212 -> 213 ;
214 [label="p_weight <= 0.5000\ngini = 0.210612244898\nsamples = 35", shape="box"] ;
213 -> 214 ;
215 [label="p_like <= 0.5000\ngini = 0.216262975779\nsamples = 34", shape="box"] ;
214 -> 215 ;
216 [label="p_tall <= 0.5000\ngini = 0.222222222222\nsamples = 33", shape="box"] ;
215 -> 216 ;
217 [label="p_mother <= 0.5000\ngini = 0.228515625\nsamples = 32", shape="box"] ;
216 -> 217 ;
218 [label="gini = 0.2352\nsamples = 31\nvalue = [  0.  27.   2.   1.   1.   0.]", shape="box"] ;
217 -> 218 ;
219 [label="gini = 0.0000\nsamples = 1\nvalue = [ 0.  1.  0.  0.  0.  0.]", shape="box"] ;
217 -> 219 ;
220 [label="gini = 0.0000\nsamples = 1\nvalue = [ 0.  1.  0.  0.  0.  0.]", shape="box"] ;
216 -> 220 ;
221 [label="gini = 0.0000\nsamples = 1\nvalue = [ 0.  1.  0.  0.  0.  0.]", shape="box"] ;
215 -> 221 ;
222 [label="gini = 0.0000\nsamples = 1\nvalue = [ 0.  1.  0.  0.  0.  0.]", shape="box"] ;
214 -> 222 ;
223 [label="gini = 0.0000\nsamples = 3\nvalue = [ 0.  3.  0.  0.  0.  0.]", shape="box"] ;
213 -> 223 ;
224 [label="gini = 0.0000\nsamples = 5\nvalue = [ 0.  5.  0.  0.  0.  0.]", shape="box"] ;
212 -> 224 ;
225 [label="gini = 0.5000\nsamples = 2\nvalue = [ 0.  1.  0.  1.  0.  0.]", shape="box"] ;
211 -> 225 ;
226 [label="gini = 0.5000\nsamples = 2\nvalue = [ 0.  1.  0.  0.  1.  0.]", shape="box"] ;
210 -> 226 ;
227 [label="gini = 0.6667\nsamples = 6\nvalue = [ 0.  3.  1.  1.  0.  1.]", shape="box"] ;
191 -> 227 ;
228 [label="gini = 0.0000\nsamples = 1\nvalue = [ 0.  0.  0.  1.  0.  0.]", shape="box"] ;
190 -> 228 ;
229 [label="gini = 0.6250\nsamples = 4\nvalue = [ 0.  1.  0.  2.  0.  1.]", shape="box"] ;
189 -> 229 ;
230 [label="p_stand_for <= 0.5000\ngini = 0.597574885935\nsamples = 284", shape="box"] ;
0 -> 230 ;
231 [label="p_mean <= 0.5000\ngini = 0.712178008458\nsamples = 204", shape="box"] ;
230 -> 231 ;
232 [label="p_how <= 0.5000\ngini = 0.660861678005\nsamples = 105", shape="box"] ;
231 -> 232 ;
233 [label="p_what <= 0.5000\ngini = 0.533425605536\nsamples = 85", shape="box"] ;
232 -> 233 ;
234 [label="p_why <= 0.5000\ngini = 0.210696049449\nsamples = 61", shape="box"] ;
233 -> 234 ;
235 [label="p_who <= 0.5000\ngini = 0.131391200951\nsamples = 58", shape="box"] ;
234 -> 235 ;
236 [label="p_like <= 0.5000\ngini = 0.100954139735\nsamples = 57", shape="box"] ;
235 -> 236 ;
237 [label="p_is <= 0.5000\ngini = 0.0695153061224\nsamples = 56", shape="box"] ;
236 -> 237 ;
238 [label="p_city <= 0.5000\ngini = 0.0370238519046\nsamples = 53", shape="box"] ;
237 -> 238 ;
239 [label="p_age <= 0.5000\ngini = 0.0377218934911\nsamples = 52", shape="box"] ;
238 -> 239 ;
240 [label="p_where <= 0.5000\ngini = 0.0384467512495\nsamples = 51", shape="box"] ;
239 -> 240 ;
241 [label="gini = 0.0392\nsamples = 50\nvalue = [  0.   0.  49.   0.   1.   0.]", shape="box"] ;
240 -> 241 ;
242 [label="gini = 0.0000\nsamples = 1\nvalue = [ 0.  0.  1.  0.  0.  0.]", shape="box"] ;
240 -> 242 ;
243 [label="gini = 0.0000\nsamples = 1\nvalue = [ 0.  0.  1.  0.  0.  0.]", shape="box"] ;
239 -> 243 ;
244 [label="gini = 0.0000\nsamples = 1\nvalue = [ 0.  0.  1.  0.  0.  0.]", shape="box"] ;
238 -> 244 ;
245 [label="gini = 0.4444\nsamples = 3\nvalue = [ 0.  0.  2.  1.  0.  0.]", shape="box"] ;
237 -> 245 ;
246 [label="gini = 0.0000\nsamples = 1\nvalue = [ 0.  0.  0.  0.  1.  0.]", shape="box"] ;
236 -> 246 ;
247 [label="gini = 0.0000\nsamples = 1\nvalue = [ 0.  1.  0.  0.  0.  0.]", shape="box"] ;
235 -> 247 ;
248 [label="gini = 0.0000\nsamples = 3\nvalue = [ 0.  0.  0.  3.  0.  0.]", shape="box"] ;
234 -> 248 ;
249 [label="p_when <= 0.5000\ngini = 0.600694444444\nsamples = 24", shape="box"] ;
233 -> 249 ;
250 [label="p_what_does <= 0.5000\ngini = 0.578449905482\nsamples = 23", shape="box"] ;
249 -> 250 ;
251 [label="p_is <= 0.5000\ngini = 0.72\nsamples = 10", shape="box"] ;
250 -> 251 ;
252 [label="gini = 0.6250\nsamples = 4\nvalue = [ 0.  1.  1.  0.  2.  0.]", shape="box"] ;
251 -> 252 ;
253 [label="gini = 0.7222\nsamples = 6\nvalue = [ 0.  2.  0.  1.  2.  1.]", shape="box"] ;
251 -> 253 ;
254 [label="p_called <= 0.5000\ngini = 0.355029585799\nsamples = 13", shape="box"] ;
250 -> 254 ;
255 [label="p_is <= 0.5000\ngini = 0.375\nsamples = 12", shape="box"] ;
254 -> 255 ;
256 [label="gini = 0.3457\nsamples = 9\nvalue = [ 0.  0.  0.  2.  7.  0.]", shape="box"] ;
255 -> 256 ;
257 [label="gini = 0.4444\nsamples = 3\nvalue = [ 0.  0.  0.  1.  2.  0.]", shape="box"] ;
255 -> 257 ;
258 [label="gini = 0.0000\nsamples = 1\nvalue = [ 0.  0.  0.  0.  1.  0.]", shape="box"] ;
254 -> 258 ;
259 [label="gini = 0.0000\nsamples = 1\nvalue = [ 0.  1.  0.  0.  0.  0.]", shape="box"] ;
249 -> 259 ;
260 [label="p_many <= 0.5000\ngini = 0.495\nsamples = 20", shape="box"] ;
232 -> 260 ;
261 [label="p_much <= 0.5000\ngini = 0.48\nsamples = 15", shape="box"] ;
260 -> 261 ;
262 [label="gini = 0.4260\nsamples = 13\nvalue = [ 0.  0.  0.  9.  0.  4.]", shape="box"] ;
261 -> 262 ;
263 [label="gini = 0.0000\nsamples = 2\nvalue = [ 0.  0.  0.  0.  0.  2.]", shape="box"] ;
261 -> 263 ;
264 [label="gini = 0.0000\nsamples = 5\nvalue = [ 0.  0.  0.  0.  0.  5.]", shape="box"] ;
260 -> 264 ;
265 [label="p_what_does <= 0.5000\ngini = 0.197530864198\nsamples = 99", shape="box"] ;
231 -> 265 ;
266 [label="gini = 0.0000\nsamples = 86\nvalue = [ 86.   0.   0.   0.   0.   0.]", shape="box"] ;
265 -> 266 ;
267 [label="p_is <= 0.5000\ngini = 0.260355029586\nsamples = 13", shape="box"] ;
265 -> 267 ;
268 [label="p_like <= 0.5000\ngini = 0.277777777778\nsamples = 12", shape="box"] ;
267 -> 268 ;
269 [label="gini = 0.2975\nsamples = 11\nvalue = [ 2.  0.  0.  9.  0.  0.]", shape="box"] ;
268 -> 269 ;
270 [label="gini = 0.0000\nsamples = 1\nvalue = [ 0.  0.  0.  1.  0.  0.]", shape="box"] ;
268 -> 270 ;
271 [label="gini = 0.0000\nsamples = 1\nvalue = [ 0.  0.  0.  1.  0.  0.]", shape="box"] ;
267 -> 271 ;
272 [label="gini = 0.0000\nsamples = 80\nvalue = [ 80.   0.   0.   0.   0.   0.]", shape="box"] ;
230 -> 272 ;
}