digraph Tree {
0 [label="sw_does <= 0.5000\ngini = 0.8280385\nsamples = 2000", shape="box"] ;
1 [label="sw_who <= 0.5000\ngini = 0.807668640862\nsamples = 1787", shape="box"] ;
0 -> 1 ;
2 [label="r_num <= 0.5000\ngini = 0.803845960773\nsamples = 1670", shape="box"] ;
1 -> 2 ;
3 [label="p_is_that <= 0.5000\ngini = 0.797400888618\nsamples = 1374", shape="box"] ;
2 -> 3 ;
4 [label="any_city <= 0.5000\ngini = 0.789091077961\nsamples = 1296", shape="box"] ;
3 -> 4 ;
5 [label="sw_where <= 0.5000\ngini = 0.785213699768\nsamples = 1199", shape="box"] ;
4 -> 5 ;
6 [label="p_capital <= 0.5000\ngini = 0.778046185237\nsamples = 1145", shape="box"] ;
5 -> 6 ;
7 [label="sw_how <= 0.5000\ngini = 0.767748760331\nsamples = 1100", shape="box"] ;
6 -> 7 ;
8 [label="p_way_to <= 0.5000\ngini = 0.759158261099\nsamples = 969", shape="box"] ;
7 -> 8 ;
9 [label="length <= 5.5000\ngini = 0.761511035388\nsamples = 911", shape="box"] ;
8 -> 9 ;
10 [label="r_abbr <= 0.5000\ngini = 0.628240269402\nsamples = 113", shape="box"] ;
9 -> 10 ;
11 [label="sw_is <= 0.5000\ngini = 0.43663434903\nsamples = 76", shape="box"] ;
10 -> 11 ;
12 [label="sw_what <= 0.5000\ngini = 0.309688581315\nsamples = 68", shape="box"] ;
11 -> 12 ;
13 [label="gini = 0.6420\nsamples = 9\nvalue = [ 0.  0.  0.  3.  2.  4.]", shape="box"] ;
12 -> 13 ;
14 [label="sw_what_is <= 0.5000\ngini = 0.187302499282\nsamples = 59", shape="box"] ;
12 -> 14 ;
15 [label="p_mean_ <= 0.5000\ngini = 0.277777777778\nsamples = 18", shape="box"] ;
14 -> 15 ;
16 [label="length <= 4.5000\ngini = 0.355029585799\nsamples = 13", shape="box"] ;
15 -> 16 ;
17 [label="gini = 0.2778\nsamples = 6\nvalue = [ 0.  0.  0.  5.  1.  0.]", shape="box"] ;
16 -> 17 ;
18 [label="gini = 0.4082\nsamples = 7\nvalue = [ 0.  0.  0.  5.  2.  0.]", shape="box"] ;
16 -> 18 ;
19 [label="gini = 0.0000\nsamples = 5\nvalue = [ 0.  0.  0.  5.  0.  0.]", shape="box"] ;
15 -> 19 ;
20 [label="length <= 4.5000\ngini = 0.138013087448\nsamples = 41", shape="box"] ;
14 -> 20 ;
21 [label="gini = 0.1723\nsamples = 21\nvalue = [  2.   0.   0.  19.   0.   0.]", shape="box"] ;
20 -> 21 ;
22 [label="gini = 0.0950\nsamples = 20\nvalue = [  0.   0.   0.  19.   1.   0.]", shape="box"] ;
20 -> 22 ;
23 [label="gini = 0.2188\nsamples = 8\nvalue = [ 0.  7.  0.  0.  1.  0.]", shape="box"] ;
11 -> 23 ;
24 [label="gini = 0.1037\nsamples = 37\nvalue = [ 35.   0.   0.   1.   1.   0.]", shape="box"] ;
10 -> 24 ;
25 [label="p_visit <= 0.5000\ngini = 0.738001017582\nsamples = 798", shape="box"] ;
9 -> 25 ;
26 [label="any_president <= 0.5000\ngini = 0.725719146173\nsamples = 769", shape="box"] ;
25 -> 26 ;
27 [label="sw_when <= 0.5000\ngini = 0.713826488234\nsamples = 727", shape="box"] ;
26 -> 27 ;
28 [label="p_why <= 0.5000\ngini = 0.699156086373\nsamples = 701", shape="box"] ;
27 -> 28 ;
29 [label="sw_what_is <= 0.5000\ngini = 0.69215809121\nsamples = 678", shape="box"] ;
28 -> 29 ;
30 [label="sw_isShe <= 0.5000\ngini = 0.649027831299\nsamples = 517", shape="box"] ;
29 -> 30 ;
31 [label="p_year <= 0.5000\ngini = 0.639960788158\nsamples = 505", shape="box"] ;
30 -> 31 ;
32 [label="p_stand_for <= 0.5000\ngini = 0.624972927947\nsamples = 490", shape="box"] ;
31 -> 32 ;
33 [label="p_who <= 0.5000\ngini = 0.614902545769\nsamples = 483", shape="box"] ;
32 -> 33 ;
34 [label="sw_is <= 0.5000\ngini = 0.604925305568\nsamples = 470", shape="box"] ;
33 -> 34 ;
35 [label="p_mean_ <= 0.5000\ngini = 0.663216525591\nsamples = 302", shape="box"] ;
34 -> 35 ;
36 [label="p_name <= 0.5000\ngini = 0.653007756392\nsamples = 295", shape="box"] ;
35 -> 36 ;
37 [label="p_state <= 0.5000\ngini = 0.651704165738\nsamples = 268", shape="box"] ;
36 -> 37 ;
38 [label="p_cause <= 0.5000\ngini = 0.642368691177\nsamples = 263", shape="box"] ;
37 -> 38 ;
39 [label="p_what_do <= 0.5000\ngini = 0.636779785156\nsamples = 256", shape="box"] ;
38 -> 39 ;
40 [label="p_best <= 0.5000\ngini = 0.648922495274\nsamples = 230", shape="box"] ;
39 -> 40 ;
41 [label="any_date <= 0.5000\ngini = 0.660178165658\nsamples = 223", shape="box"] ;
40 -> 41 ;
42 [label="p_do <= 0.5000\ngini = 0.648091536379\nsamples = 214", shape="box"] ;
41 -> 42 ;
43 [label="p_which <= 0.5000\ngini = 0.623338176037\nsamples = 191", shape="box"] ;
42 -> 43 ;
44 [label="r_abbr <= 0.5000\ngini = 0.648069131199\nsamples = 167", shape="box"] ;
43 -> 44 ;
45 [label="p_in <= 0.5000\ngini = 0.638164913885\nsamples = 162", shape="box"] ;
44 -> 45 ;
46 [label="p_has <= 0.5000\ngini = 0.681908245694\nsamples = 81", shape="box"] ;
45 -> 46 ;
47 [label="p_of <= 0.5000\ngini = 0.690789473684\nsamples = 76", shape="box"] ;
46 -> 47 ;
48 [label="p_what_was <= 0.5000\ngini = 0.713571703191\nsamples = 51", shape="box"] ;
47 -> 48 ;
49 [label="length <= 8.5000\ngini = 0.724952741021\nsamples = 46", shape="box"] ;
48 -> 49 ;
50 [label="p_on <= 0.5000\ngini = 0.715\nsamples = 20", shape="box"] ;
49 -> 50 ;
51 [label="length <= 7.5000\ngini = 0.737777777778\nsamples = 15", shape="box"] ;
50 -> 51 ;
52 [label="gini = 0.6875\nsamples = 8\nvalue = [ 0.  1.  1.  3.  3.  0.]", shape="box"] ;
51 -> 52 ;
53 [label="gini = 0.7347\nsamples = 7\nvalue = [ 0.  2.  2.  1.  2.  0.]", shape="box"] ;
51 -> 53 ;
54 [label="gini = 0.4800\nsamples = 5\nvalue = [ 0.  0.  2.  0.  3.  0.]", shape="box"] ;
50 -> 54 ;
55 [label="p_is <= 0.5000\ngini = 0.683431952663\nsamples = 26", shape="box"] ;
49 -> 55 ;
56 [label="length <= 9.5000\ngini = 0.6484375\nsamples = 16", shape="box"] ;
55 -> 56 ;
57 [label="gini = 0.4082\nsamples = 7\nvalue = [ 0.  5.  0.  2.  0.  0.]", shape="box"] ;
56 -> 57 ;
58 [label="gini = 0.7160\nsamples = 9\nvalue = [ 0.  3.  1.  2.  3.  0.]", shape="box"] ;
56 -> 58 ;
59 [label="length <= 9.5000\ngini = 0.64\nsamples = 10", shape="box"] ;
55 -> 59 ;
60 [label="gini = 0.5600\nsamples = 5\nvalue = [ 0.  1.  1.  0.  3.  0.]", shape="box"] ;
59 -> 60 ;
61 [label="gini = 0.6400\nsamples = 5\nvalue = [ 0.  2.  0.  1.  2.  0.]", shape="box"] ;
59 -> 61 ;
62 [label="gini = 0.3200\nsamples = 5\nvalue = [ 0.  0.  0.  1.  4.  0.]", shape="box"] ;
48 -> 62 ;
63 [label="length <= 13.5000\ngini = 0.592\nsamples = 25", shape="box"] ;
47 -> 63 ;
64 [label="length <= 11.0000\ngini = 0.561728395062\nsamples = 18", shape="box"] ;
63 -> 64 ;
65 [label="p_on <= 0.5000\ngini = 0.485207100592\nsamples = 13", shape="box"] ;
64 -> 65 ;
66 [label="gini = 0.4062\nsamples = 8\nvalue = [ 0.  0.  0.  1.  6.  1.]", shape="box"] ;
65 -> 66 ;
67 [label="gini = 0.4800\nsamples = 5\nvalue = [ 0.  2.  0.  0.  3.  0.]", shape="box"] ;
65 -> 67 ;
68 [label="gini = 0.6400\nsamples = 5\nvalue = [ 0.  2.  0.  0.  2.  1.]", shape="box"] ;
64 -> 68 ;
69 [label="gini = 0.5714\nsamples = 7\nvalue = [ 0.  0.  1.  2.  4.  0.]", shape="box"] ;
63 -> 69 ;
70 [label="gini = 0.3200\nsamples = 5\nvalue = [ 0.  0.  0.  0.  4.  1.]", shape="box"] ;
46 -> 70 ;
71 [label="length <= 9.5000\ngini = 0.577351013565\nsamples = 81", shape="box"] ;
45 -> 71 ;
72 [label="p_of <= 0.5000\ngini = 0.309917355372\nsamples = 22", shape="box"] ;
71 -> 72 ;
73 [label="p_on <= 0.5000\ngini = 0.3984375\nsamples = 16", shape="box"] ;
72 -> 73 ;
74 [label="gini = 0.3200\nsamples = 10\nvalue = [ 0.  0.  2.  0.  8.  0.]", shape="box"] ;
73 -> 74 ;
75 [label="gini = 0.5000\nsamples = 6\nvalue = [ 0.  0.  1.  1.  4.  0.]", shape="box"] ;
73 -> 75 ;
76 [label="gini = 0.0000\nsamples = 6\nvalue = [ 0.  0.  0.  0.  6.  0.]", shape="box"] ;
72 -> 76 ;
77 [label="sw_what_was <= 0.5000\ngini = 0.645216891698\nsamples = 59", shape="box"] ;
71 -> 77 ;
78 [label="p_of <= 0.5000\ngini = 0.628943758573\nsamples = 54", shape="box"] ;
77 -> 78 ;
79 [label="r_loc <= 0.5000\ngini = 0.553633217993\nsamples = 34", shape="box"] ;
78 -> 79 ;
80 [label="p_is <= 0.5000\ngini = 0.505917159763\nsamples = 26", shape="box"] ;
79 -> 80 ;
81 [label="length <= 10.5000\ngini = 0.425925925926\nsamples = 18", shape="box"] ;
80 -> 81 ;
82 [label="gini = 0.2188\nsamples = 8\nvalue = [ 0.  1.  0.  0.  7.  0.]", shape="box"] ;
81 -> 82 ;
83 [label="gini = 0.5400\nsamples = 10\nvalue = [ 0.  3.  1.  0.  6.  0.]", shape="box"] ;
81 -> 83 ;
84 [label="gini = 0.6250\nsamples = 8\nvalue = [ 0.  2.  2.  0.  4.  0.]", shape="box"] ;
80 -> 84 ;
85 [label="gini = 0.6562\nsamples = 8\nvalue = [ 0.  2.  0.  1.  4.  1.]", shape="box"] ;
79 -> 85 ;
86 [label="length <= 11.5000\ngini = 0.72\nsamples = 20", shape="box"] ;
78 -> 86 ;
87 [label="gini = 0.6400\nsamples = 5\nvalue = [ 0.  0.  2.  1.  0.  2.]", shape="box"] ;
86 -> 87 ;
88 [label="r_loc <= 0.5000\ngini = 0.586666666667\nsamples = 15", shape="box"] ;
86 -> 88 ;
89 [label="gini = 0.4062\nsamples = 8\nvalue = [ 0.  1.  0.  1.  6.  0.]", shape="box"] ;
88 -> 89 ;
90 [label="gini = 0.6939\nsamples = 7\nvalue = [ 0.  2.  1.  0.  3.  1.]", shape="box"] ;
88 -> 90 ;
91 [label="gini = 0.6400\nsamples = 5\nvalue = [ 0.  0.  1.  2.  2.  0.]", shape="box"] ;
77 -> 91 ;
92 [label="gini = 0.7200\nsamples = 5\nvalue = [ 1.  1.  0.  2.  1.  0.]", shape="box"] ;
44 -> 92 ;
93 [label="length <= 8.5000\ngini = 0.392361111111\nsamples = 24", shape="box"] ;
43 -> 93 ;
94 [label="gini = 0.5000\nsamples = 8\nvalue = [ 0.  4.  0.  0.  4.  0.]", shape="box"] ;
93 -> 94 ;
95 [label="length <= 11.5000\ngini = 0.2265625\nsamples = 16", shape="box"] ;
93 -> 95 ;
96 [label="gini = 0.0000\nsamples = 10\nvalue = [  0.   0.   0.   0.  10.   0.]", shape="box"] ;
95 -> 96 ;
97 [label="gini = 0.5000\nsamples = 6\nvalue = [ 0.  1.  1.  0.  4.  0.]", shape="box"] ;
95 -> 97 ;
98 [label="p_does <= 0.5000\ngini = 0.775047258979\nsamples = 23", shape="box"] ;
42 -> 98 ;
99 [label="length <= 10.5000\ngini = 0.7890625\nsamples = 16", shape="box"] ;
98 -> 99 ;
100 [label="gini = 0.7222\nsamples = 6\nvalue = [ 0.  0.  2.  2.  1.  1.]", shape="box"] ;
99 -> 100 ;
101 [label="gini = 0.7400\nsamples = 10\nvalue = [ 0.  4.  1.  2.  2.  1.]", shape="box"] ;
99 -> 101 ;
102 [label="gini = 0.5714\nsamples = 7\nvalue = [ 0.  2.  0.  0.  4.  1.]", shape="box"] ;
98 -> 102 ;
103 [label="gini = 0.6420\nsamples = 9\nvalue = [ 0.  5.  1.  1.  1.  1.]", shape="box"] ;
41 -> 103 ;
104 [label="gini = 0.0000\nsamples = 7\nvalue = [ 0.  0.  0.  0.  7.  0.]", shape="box"] ;
40 -> 104 ;
105 [label="p_of <= 0.5000\ngini = 0.426035502959\nsamples = 26", shape="box"] ;
39 -> 105 ;
106 [label="p_in <= 0.5000\ngini = 0.471655328798\nsamples = 21", shape="box"] ;
105 -> 106 ;
107 [label="length <= 8.5000\ngini = 0.396694214876\nsamples = 11", shape="box"] ;
106 -> 107 ;
108 [label="gini = 0.5000\nsamples = 6\nvalue = [ 0.  0.  0.  3.  3.  0.]", shape="box"] ;
107 -> 108 ;
109 [label="gini = 0.0000\nsamples = 5\nvalue = [ 0.  0.  0.  0.  5.  0.]", shape="box"] ;
107 -> 109 ;
110 [label="length <= 9.0000\ngini = 0.5\nsamples = 10", shape="box"] ;
106 -> 110 ;
111 [label="gini = 0.4800\nsamples = 5\nvalue = [ 0.  0.  0.  2.  3.  0.]", shape="box"] ;
110 -> 111 ;
112 [label="gini = 0.4800\nsamples = 5\nvalue = [ 0.  0.  0.  3.  2.  0.]", shape="box"] ;
110 -> 112 ;
113 [label="gini = 0.0000\nsamples = 5\nvalue = [ 0.  0.  0.  0.  5.  0.]", shape="box"] ;
105 -> 113 ;
114 [label="gini = 0.4082\nsamples = 7\nvalue = [ 0.  0.  0.  5.  2.  0.]", shape="box"] ;
38 -> 114 ;
115 [label="gini = 0.3200\nsamples = 5\nvalue = [ 0.  0.  4.  1.  0.  0.]", shape="box"] ;
37 -> 115 ;
116 [label="p_of <= 0.5000\ngini = 0.493827160494\nsamples = 27", shape="box"] ;
36 -> 116 ;
117 [label="length <= 8.5000\ngini = 0.456747404844\nsamples = 17", shape="box"] ;
116 -> 117 ;
118 [label="gini = 0.4082\nsamples = 7\nvalue = [ 0.  5.  0.  0.  2.  0.]", shape="box"] ;
117 -> 118 ;
119 [label="p_what <= 0.5000\ngini = 0.48\nsamples = 10", shape="box"] ;
117 -> 119 ;
120 [label="gini = 0.3200\nsamples = 5\nvalue = [ 0.  4.  0.  0.  1.  0.]", shape="box"] ;
119 -> 120 ;
121 [label="gini = 0.4800\nsamples = 5\nvalue = [ 0.  2.  0.  0.  3.  0.]", shape="box"] ;
119 -> 121 ;
122 [label="length <= 12.5000\ngini = 0.48\nsamples = 10", shape="box"] ;
116 -> 122 ;
123 [label="gini = 0.4800\nsamples = 5\nvalue = [ 0.  2.  0.  0.  3.  0.]", shape="box"] ;
122 -> 123 ;
124 [label="gini = 0.4800\nsamples = 5\nvalue = [ 0.  2.  0.  0.  3.  0.]", shape="box"] ;
122 -> 124 ;
125 [label="gini = 0.2449\nsamples = 7\nvalue = [ 1.  0.  0.  6.  0.  0.]", shape="box"] ;
35 -> 125 ;
126 [label="r_loc <= 0.5000\ngini = 0.455498866213\nsamples = 168", shape="box"] ;
34 -> 126 ;
127 [label="r_abbr <= 0.5000\ngini = 0.357700312175\nsamples = 124", shape="box"] ;
126 -> 127 ;
128 [label="p_number <= 0.5000\ngini = 0.403883121876\nsamples = 102", shape="box"] ;
127 -> 128 ;
129 [label="p_in <= 0.5000\ngini = 0.384525454352\nsamples = 97", shape="box"] ;
128 -> 129 ;
130 [label="p_for <= 0.5000\ngini = 0.463209876543\nsamples = 45", shape="box"] ;
129 -> 130 ;
131 [label="length <= 7.5000\ngini = 0.37585733882\nsamples = 27", shape="box"] ;
130 -> 131 ;
132 [label="gini = 0.0000\nsamples = 5\nvalue = [ 0.  0.  0.  0.  5.  0.]", shape="box"] ;
131 -> 132 ;
133 [label="length <= 12.5000\ngini = 0.442148760331\nsamples = 22", shape="box"] ;
131 -> 133 ;
134 [label="p_on <= 0.5000\ngini = 0.532871972318\nsamples = 17", shape="box"] ;
133 -> 134 ;
135 [label="gini = 0.4298\nsamples = 11\nvalue = [ 0.  0.  1.  2.  8.  0.]", shape="box"] ;
134 -> 135 ;
136 [label="gini = 0.6111\nsamples = 6\nvalue = [ 0.  2.  0.  1.  3.  0.]", shape="box"] ;
134 -> 136 ;
137 [label="gini = 0.0000\nsamples = 5\nvalue = [ 0.  0.  0.  0.  5.  0.]", shape="box"] ;
133 -> 137 ;
138 [label="length <= 8.5000\ngini = 0.493827160494\nsamples = 18", shape="box"] ;
130 -> 138 ;
139 [label="gini = 0.4688\nsamples = 8\nvalue = [ 0.  0.  0.  5.  3.  0.]", shape="box"] ;
138 -> 139 ;
140 [label="p_on <= 0.5000\ngini = 0.42\nsamples = 10", shape="box"] ;
138 -> 140 ;
141 [label="gini = 0.3200\nsamples = 5\nvalue = [ 0.  0.  0.  1.  4.  0.]", shape="box"] ;
140 -> 141 ;
142 [label="gini = 0.4800\nsamples = 5\nvalue = [ 0.  0.  0.  2.  3.  0.]", shape="box"] ;
140 -> 142 ;
143 [label="length <= 15.5000\ngini = 0.299556213018\nsamples = 52", shape="box"] ;
129 -> 143 ;
144 [label="length <= 7.5000\ngini = 0.18375\nsamples = 40", shape="box"] ;
143 -> 144 ;
145 [label="gini = 0.4800\nsamples = 5\nvalue = [ 0.  2.  0.  0.  3.  0.]", shape="box"] ;
144 -> 145 ;
146 [label="p_of <= 0.5000\ngini = 0.109387755102\nsamples = 35", shape="box"] ;
144 -> 146 ;
147 [label="p_on <= 0.5000\ngini = 0.0665873959572\nsamples = 29", shape="box"] ;
146 -> 147 ;
148 [label="gini = 0.0000\nsamples = 19\nvalue = [  0.   0.   0.   0.  19.   0.]", shape="box"] ;
147 -> 148 ;
149 [label="gini = 0.1800\nsamples = 10\nvalue = [ 0.  1.  0.  0.  9.  0.]", shape="box"] ;
147 -> 149 ;
150 [label="gini = 0.2778\nsamples = 6\nvalue = [ 0.  0.  0.  1.  5.  0.]", shape="box"] ;
146 -> 150 ;
151 [label="length <= 16.5000\ngini = 0.486111111111\nsamples = 12", shape="box"] ;
143 -> 151 ;
152 [label="gini = 0.4800\nsamples = 5\nvalue = [ 0.  0.  0.  3.  2.  0.]", shape="box"] ;
151 -> 152 ;
153 [label="gini = 0.4082\nsamples = 7\nvalue = [ 0.  0.  0.  2.  5.  0.]", shape="box"] ;
151 -> 153 ;
154 [label="gini = 0.4800\nsamples = 5\nvalue = [ 0.  0.  0.  3.  2.  0.]", shape="box"] ;
128 -> 154 ;
155 [label="length <= 10.5000\ngini = 0.0867768595041\nsamples = 22", shape="box"] ;
127 -> 155 ;
156 [label="gini = 0.2778\nsamples = 6\nvalue = [ 0.  0.  0.  1.  5.  0.]", shape="box"] ;
155 -> 156 ;
157 [label="gini = 0.0000\nsamples = 16\nvalue = [  0.   0.   0.   0.  16.   0.]", shape="box"] ;
155 -> 157 ;
158 [label="p_on <= 0.5000\ngini = 0.597107438017\nsamples = 44", shape="box"] ;
126 -> 158 ;
159 [label="p_is_there_a <= 0.5000\ngini = 0.633333333333\nsamples = 30", shape="box"] ;
158 -> 159 ;
160 [label="length <= 12.0000\ngini = 0.581632653061\nsamples = 14", shape="box"] ;
159 -> 160 ;
161 [label="gini = 0.4800\nsamples = 5\nvalue = [ 0.  0.  0.  2.  3.  0.]", shape="box"] ;
160 -> 161 ;
162 [label="gini = 0.5679\nsamples = 9\nvalue = [ 0.  0.  3.  1.  5.  0.]", shape="box"] ;
160 -> 162 ;
163 [label="length <= 10.5000\ngini = 0.578125\nsamples = 16", shape="box"] ;
159 -> 163 ;
164 [label="gini = 0.6122\nsamples = 7\nvalue = [ 0.  1.  4.  1.  1.  0.]", shape="box"] ;
163 -> 164 ;
165 [label="gini = 0.4938\nsamples = 9\nvalue = [ 0.  0.  5.  0.  4.  0.]", shape="box"] ;
163 -> 165 ;
166 [label="p_is_there_a <= 0.5000\ngini = 0.438775510204\nsamples = 14", shape="box"] ;
158 -> 166 ;
167 [label="gini = 0.5600\nsamples = 5\nvalue = [ 0.  0.  3.  1.  1.  0.]", shape="box"] ;
166 -> 167 ;
168 [label="gini = 0.0000\nsamples = 9\nvalue = [ 0.  0.  0.  0.  9.  0.]", shape="box"] ;
166 -> 168 ;
169 [label="sw_is_there <= 0.5000\ngini = 0.473372781065\nsamples = 13", shape="box"] ;
33 -> 169 ;
170 [label="gini = 0.3200\nsamples = 5\nvalue = [ 0.  4.  0.  0.  1.  0.]", shape="box"] ;
169 -> 170 ;
171 [label="gini = 0.5312\nsamples = 8\nvalue = [ 0.  5.  2.  0.  1.  0.]", shape="box"] ;
169 -> 171 ;
172 [label="gini = 0.2449\nsamples = 7\nvalue = [ 6.  0.  0.  1.  0.  0.]", shape="box"] ;
32 -> 172 ;
173 [label="length <= 14.5000\ngini = 0.435555555556\nsamples = 15", shape="box"] ;
31 -> 173 ;
174 [label="gini = 0.0000\nsamples = 10\nvalue = [  0.   0.   0.   0.   0.  10.]", shape="box"] ;
173 -> 174 ;
175 [label="gini = 0.7200\nsamples = 5\nvalue = [ 0.  1.  0.  1.  2.  1.]", shape="box"] ;
173 -> 175 ;
176 [label="gini = 0.0000\nsamples = 12\nvalue = [  0.  12.   0.   0.   0.   0.]", shape="box"] ;
30 -> 176 ;
177 [label="p_origin_of <= 0.5000\ngini = 0.734925350102\nsamples = 161", shape="box"] ;
29 -> 177 ;
178 [label="p__diff <= 0.5000\ngini = 0.744\nsamples = 150", shape="box"] ;
177 -> 178 ;
179 [label="p_name <= 0.5000\ngini = 0.746944318696\nsamples = 141", shape="box"] ;
178 -> 179 ;
180 [label="length <= 8.5000\ngini = 0.726716961498\nsamples = 124", shape="box"] ;
179 -> 180 ;
181 [label="length <= 6.5000\ngini = 0.664609053498\nsamples = 54", shape="box"] ;
180 -> 181 ;
182 [label="p_in <= 0.5000\ngini = 0.497777777778\nsamples = 15", shape="box"] ;
181 -> 182 ;
183 [label="gini = 0.5400\nsamples = 10\nvalue = [ 0.  0.  1.  6.  3.  0.]", shape="box"] ;
182 -> 183 ;
184 [label="gini = 0.3200\nsamples = 5\nvalue = [ 0.  0.  1.  4.  0.  0.]", shape="box"] ;
182 -> 184 ;
185 [label="p_on <= 0.5000\ngini = 0.670611439842\nsamples = 39", shape="box"] ;
181 -> 185 ;
186 [label="length <= 7.5000\ngini = 0.594387755102\nsamples = 28", shape="box"] ;
185 -> 186 ;
187 [label="p_of <= 0.5000\ngini = 0.4765625\nsamples = 16", shape="box"] ;
186 -> 187 ;
188 [label="gini = 0.6562\nsamples = 8\nvalue = [ 0.  0.  0.  3.  3.  2.]", shape="box"] ;
187 -> 188 ;
189 [label="gini = 0.0000\nsamples = 8\nvalue = [ 0.  0.  0.  0.  8.  0.]", shape="box"] ;
187 -> 189 ;
190 [label="p_of <= 0.5000\ngini = 0.652777777778\nsamples = 12", shape="box"] ;
186 -> 190 ;
191 [label="gini = 0.5714\nsamples = 7\nvalue = [ 0.  0.  2.  1.  4.  0.]", shape="box"] ;
190 -> 191 ;
192 [label="gini = 0.5600\nsamples = 5\nvalue = [ 0.  0.  1.  3.  1.  0.]", shape="box"] ;
190 -> 192 ;
193 [label="p_of <= 0.5000\ngini = 0.710743801653\nsamples = 11", shape="box"] ;
185 -> 193 ;
194 [label="gini = 0.7200\nsamples = 5\nvalue = [ 1.  0.  1.  1.  2.  0.]", shape="box"] ;
193 -> 194 ;
195 [label="gini = 0.4444\nsamples = 6\nvalue = [ 0.  0.  0.  4.  0.  2.]", shape="box"] ;
193 -> 195 ;
196 [label="p_on <= 0.5000\ngini = 0.716734693878\nsamples = 70", shape="box"] ;
180 -> 196 ;
197 [label="r_loc <= 0.5000\ngini = 0.675736961451\nsamples = 42", shape="box"] ;
196 -> 197 ;
198 [label="length <= 10.5000\ngini = 0.641868512111\nsamples = 34", shape="box"] ;
197 -> 198 ;
199 [label="p_for <= 0.5000\ngini = 0.650205761317\nsamples = 27", shape="box"] ;
198 -> 199 ;
200 [label="length <= 9.5000\ngini = 0.681818181818\nsamples = 22", shape="box"] ;
199 -> 200 ;
201 [label="p_of <= 0.5000\ngini = 0.650887573964\nsamples = 13", shape="box"] ;
200 -> 201 ;
202 [label="gini = 0.5600\nsamples = 5\nvalue = [ 0.  0.  0.  1.  3.  1.]", shape="box"] ;
201 -> 202 ;
203 [label="gini = 0.6250\nsamples = 8\nvalue = [ 0.  0.  0.  2.  2.  4.]", shape="box"] ;
201 -> 203 ;
204 [label="gini = 0.6667\nsamples = 9\nvalue = [ 0.  0.  1.  3.  1.  4.]", shape="box"] ;
200 -> 204 ;
205 [label="gini = 0.3200\nsamples = 5\nvalue = [ 0.  0.  0.  1.  0.  4.]", shape="box"] ;
199 -> 205 ;
206 [label="gini = 0.4898\nsamples = 7\nvalue = [ 0.  0.  0.  4.  0.  3.]", shape="box"] ;
198 -> 206 ;
207 [label="gini = 0.6562\nsamples = 8\nvalue = [ 0.  0.  1.  1.  4.  2.]", shape="box"] ;
197 -> 207 ;
208 [label="p_of <= 0.5000\ngini = 0.673469387755\nsamples = 28", shape="box"] ;
196 -> 208 ;
209 [label="length <= 9.5000\ngini = 0.537037037037\nsamples = 18", shape="box"] ;
208 -> 209 ;
210 [label="gini = 0.4800\nsamples = 5\nvalue = [ 0.  0.  3.  0.  2.  0.]", shape="box"] ;
209 -> 210 ;
211 [label="length <= 11.5000\ngini = 0.473372781065\nsamples = 13", shape="box"] ;
209 -> 211 ;
212 [label="gini = 0.3200\nsamples = 5\nvalue = [ 0.  0.  1.  0.  4.  0.]", shape="box"] ;
211 -> 212 ;
213 [label="gini = 0.5312\nsamples = 8\nvalue = [ 0.  0.  1.  0.  5.  2.]", shape="box"] ;
211 -> 213 ;
214 [label="r_loc <= 0.5000\ngini = 0.68\nsamples = 10", shape="box"] ;
208 -> 214 ;
215 [label="gini = 0.5600\nsamples = 5\nvalue = [ 0.  0.  0.  1.  1.  3.]", shape="box"] ;
214 -> 215 ;
216 [label="gini = 0.7200\nsamples = 5\nvalue = [ 1.  0.  1.  0.  1.  2.]", shape="box"] ;
214 -> 216 ;
217 [label="p_on <= 0.5000\ngini = 0.602076124567\nsamples = 17", shape="box"] ;
179 -> 217 ;
218 [label="r_loc <= 0.5000\ngini = 0.583333333333\nsamples = 12", shape="box"] ;
217 -> 218 ;
219 [label="gini = 0.2778\nsamples = 6\nvalue = [ 0.  5.  0.  1.  0.  0.]", shape="box"] ;
218 -> 219 ;
220 [label="gini = 0.6111\nsamples = 6\nvalue = [ 0.  2.  1.  0.  3.  0.]", shape="box"] ;
218 -> 220 ;
221 [label="gini = 0.3200\nsamples = 5\nvalue = [ 0.  1.  0.  0.  4.  0.]", shape="box"] ;
217 -> 221 ;
222 [label="gini = 0.0000\nsamples = 9\nvalue = [ 0.  0.  0.  9.  0.  0.]", shape="box"] ;
178 -> 222 ;
223 [label="gini = 0.0000\nsamples = 11\nvalue = [  0.   0.   0.  11.   0.   0.]", shape="box"] ;
177 -> 223 ;
224 [label="length <= 14.5000\ngini = 0.0831758034026\nsamples = 23", shape="box"] ;
28 -> 224 ;
225 [label="gini = 0.0000\nsamples = 18\nvalue = [  0.   0.   0.  18.   0.   0.]", shape="box"] ;
224 -> 225 ;
226 [label="gini = 0.3200\nsamples = 5\nvalue = [ 0.  0.  1.  4.  0.  0.]", shape="box"] ;
224 -> 226 ;
227 [label="length <= 10.5000\ngini = 0.14201183432\nsamples = 26", shape="box"] ;
27 -> 227 ;
228 [label="gini = 0.0000\nsamples = 20\nvalue = [  0.   0.   0.   0.   0.  20.]", shape="box"] ;
227 -> 228 ;
229 [label="gini = 0.4444\nsamples = 6\nvalue = [ 0.  2.  0.  0.  0.  4.]", shape="box"] ;
227 -> 229 ;
230 [label="p_is <= 0.5000\ngini = 0.332199546485\nsamples = 42", shape="box"] ;
26 -> 230 ;
231 [label="length <= 12.0000\ngini = 0.64\nsamples = 15", shape="box"] ;
230 -> 231 ;
232 [label="gini = 0.5400\nsamples = 10\nvalue = [ 0.  6.  0.  0.  1.  3.]", shape="box"] ;
231 -> 232 ;
233 [label="gini = 0.6400\nsamples = 5\nvalue = [ 0.  2.  0.  2.  1.  0.]", shape="box"] ;
231 -> 233 ;
234 [label="p_name <= 0.5000\ngini = 0.0713305898491\nsamples = 27", shape="box"] ;
230 -> 234 ;
235 [label="gini = 0.0000\nsamples = 22\nvalue = [  0.  22.   0.   0.   0.   0.]", shape="box"] ;
234 -> 235 ;
236 [label="gini = 0.3200\nsamples = 5\nvalue = [ 0.  4.  0.  0.  1.  0.]", shape="box"] ;
234 -> 236 ;
237 [label="p_on <= 0.5000\ngini = 0.128418549346\nsamples = 29", shape="box"] ;
25 -> 237 ;
238 [label="gini = 0.1244\nsamples = 15\nvalue = [  0.   0.  14.   1.   0.   0.]", shape="box"] ;
237 -> 238 ;
239 [label="gini = 0.1327\nsamples = 14\nvalue = [  0.   0.  13.   1.   0.   0.]", shape="box"] ;
237 -> 239 ;
240 [label="p_is_there_a <= 0.5000\ngini = 0.0338882282996\nsamples = 58", shape="box"] ;
8 -> 240 ;
241 [label="p_on <= 0.5000\ngini = 0.0739644970414\nsamples = 26", shape="box"] ;
240 -> 241 ;
242 [label="gini = 0.0000\nsamples = 15\nvalue = [  0.   0.   0.  15.   0.   0.]", shape="box"] ;
241 -> 242 ;
243 [label="gini = 0.1653\nsamples = 11\nvalue = [  0.   0.   0.  10.   1.   0.]", shape="box"] ;
241 -> 243 ;
244 [label="gini = 0.0000\nsamples = 32\nvalue = [  0.   0.   0.  32.   0.   0.]", shape="box"] ;
240 -> 244 ;
245 [label="sw_how_many <= 0.5000\ngini = 0.515004953091\nsamples = 131", shape="box"] ;
7 -> 245 ;
246 [label="sw_how_do <= 0.5000\ngini = 0.412839506173\nsamples = 90", shape="box"] ;
245 -> 246 ;
247 [label="p_how_can <= 0.5000\ngini = 0.5176\nsamples = 50", shape="box"] ;
246 -> 247 ;
248 [label="sw_how_long <= 0.5000\ngini = 0.497229916898\nsamples = 38", shape="box"] ;
247 -> 248 ;
249 [label="p_on <= 0.5000\ngini = 0.525390625\nsamples = 32", shape="box"] ;
248 -> 249 ;
250 [label="p_old <= 0.5000\ngini = 0.408163265306\nsamples = 21", shape="box"] ;
249 -> 250 ;
251 [label="length <= 6.5000\ngini = 0.48\nsamples = 15", shape="box"] ;
250 -> 251 ;
252 [label="gini = 0.3200\nsamples = 5\nvalue = [ 0.  0.  0.  1.  0.  4.]", shape="box"] ;
251 -> 252 ;
253 [label="p_is <= 0.5000\ngini = 0.5\nsamples = 10", shape="box"] ;
251 -> 253 ;
254 [label="gini = 0.4800\nsamples = 5\nvalue = [ 0.  0.  0.  3.  0.  2.]", shape="box"] ;
253 -> 254 ;
255 [label="gini = 0.4800\nsamples = 5\nvalue = [ 0.  0.  0.  2.  0.  3.]", shape="box"] ;
253 -> 255 ;
256 [label="gini = 0.0000\nsamples = 6\nvalue = [ 0.  0.  0.  0.  0.  6.]", shape="box"] ;
250 -> 256 ;
257 [label="p_is <= 0.5000\ngini = 0.429752066116\nsamples = 11", shape="box"] ;
249 -> 257 ;
258 [label="gini = 0.6400\nsamples = 5\nvalue = [ 0.  1.  0.  2.  0.  2.]", shape="box"] ;
257 -> 258 ;
259 [label="gini = 0.0000\nsamples = 6\nvalue = [ 0.  0.  0.  6.  0.  0.]", shape="box"] ;
257 -> 259 ;
260 [label="gini = 0.0000\nsamples = 6\nvalue = [ 0.  0.  0.  0.  0.  6.]", shape="box"] ;
248 -> 260 ;
261 [label="gini = 0.0000\nsamples = 12\nvalue = [  0.   0.   0.  12.   0.   0.]", shape="box"] ;
247 -> 261 ;
262 [label="p_is <= 0.5000\ngini = 0.04875\nsamples = 40", shape="box"] ;
246 -> 262 ;
263 [label="gini = 0.0000\nsamples = 34\nvalue = [  0.   0.   0.  34.   0.   0.]", shape="box"] ;
262 -> 263 ;
264 [label="gini = 0.2778\nsamples = 6\nvalue = [ 0.  0.  0.  5.  1.  0.]", shape="box"] ;
262 -> 264 ;
265 [label="gini = 0.0000\nsamples = 41\nvalue = [  0.   0.   0.   0.   0.  41.]", shape="box"] ;
245 -> 265 ;
266 [label="length <= 8.5000\ngini = 0.0434567901235\nsamples = 45", shape="box"] ;
6 -> 266 ;
267 [label="gini = 0.0000\nsamples = 40\nvalue = [  0.   0.  40.   0.   0.   0.]", shape="box"] ;
266 -> 267 ;
268 [label="gini = 0.3200\nsamples = 5\nvalue = [ 0.  1.  4.  0.  0.  0.]", shape="box"] ;
266 -> 268 ;
269 [label="p_on <= 0.5000\ngini = 0.0720164609053\nsamples = 54", shape="box"] ;
5 -> 269 ;
270 [label="p_in <= 0.5000\ngini = 0.046485260771\nsamples = 42", shape="box"] ;
269 -> 270 ;
271 [label="gini = 0.0000\nsamples = 28\nvalue = [  0.   0.  28.   0.   0.   0.]", shape="box"] ;
270 -> 271 ;
272 [label="length <= 9.5000\ngini = 0.132653061224\nsamples = 14", shape="box"] ;
270 -> 272 ;
273 [label="gini = 0.2449\nsamples = 7\nvalue = [ 0.  0.  6.  0.  1.  0.]", shape="box"] ;
272 -> 273 ;
274 [label="gini = 0.0000\nsamples = 7\nvalue = [ 0.  0.  7.  0.  0.  0.]", shape="box"] ;
272 -> 274 ;
275 [label="length <= 8.5000\ngini = 0.152777777778\nsamples = 12", shape="box"] ;
269 -> 275 ;
276 [label="gini = 0.3200\nsamples = 5\nvalue = [ 0.  0.  4.  1.  0.  0.]", shape="box"] ;
275 -> 276 ;
277 [label="gini = 0.0000\nsamples = 7\nvalue = [ 0.  0.  7.  0.  0.  0.]", shape="box"] ;
275 -> 277 ;
278 [label="sw_how <= 0.5000\ngini = 0.337974279945\nsamples = 97", shape="box"] ;
4 -> 278 ;
279 [label="sw_is_there <= 0.5000\ngini = 0.270085066163\nsamples = 92", shape="box"] ;
278 -> 279 ;
280 [label="length <= 14.5000\ngini = 0.12346095463\nsamples = 77", shape="box"] ;
279 -> 280 ;
281 [label="p_what_is <= 0.5000\ngini = 0.0817298155128\nsamples = 71", shape="box"] ;
280 -> 281 ;
282 [label="p_for <= 0.5000\ngini = 0.0601183431953\nsamples = 65", shape="box"] ;
281 -> 282 ;
283 [label="p_in <= 0.5000\ngini = 0.0327777777778\nsamples = 60", shape="box"] ;
282 -> 283 ;
284 [label="p_is <= 0.5000\ngini = 0.1171875\nsamples = 16", shape="box"] ;
283 -> 284 ;
285 [label="gini = 0.2449\nsamples = 7\nvalue = [ 0.  0.  6.  1.  0.  0.]", shape="box"] ;
284 -> 285 ;
286 [label="gini = 0.0000\nsamples = 9\nvalue = [ 0.  0.  9.  0.  0.  0.]", shape="box"] ;
284 -> 286 ;
287 [label="gini = 0.0000\nsamples = 44\nvalue = [  0.   0.  44.   0.   0.   0.]", shape="box"] ;
283 -> 287 ;
288 [label="gini = 0.3200\nsamples = 5\nvalue = [ 0.  0.  4.  0.  0.  1.]", shape="box"] ;
282 -> 288 ;
289 [label="gini = 0.2778\nsamples = 6\nvalue = [ 0.  0.  5.  0.  0.  1.]", shape="box"] ;
281 -> 289 ;
290 [label="gini = 0.4444\nsamples = 6\nvalue = [ 0.  0.  4.  2.  0.  0.]", shape="box"] ;
280 -> 290 ;
291 [label="p_way <= 0.5000\ngini = 0.64\nsamples = 15", shape="box"] ;
279 -> 291 ;
292 [label="gini = 0.6420\nsamples = 9\nvalue = [ 0.  0.  4.  2.  3.  0.]", shape="box"] ;
291 -> 292 ;
293 [label="gini = 0.4444\nsamples = 6\nvalue = [ 0.  0.  2.  4.  0.  0.]", shape="box"] ;
291 -> 293 ;
294 [label="gini = 0.3200\nsamples = 5\nvalue = [ 0.  0.  0.  1.  0.  4.]", shape="box"] ;
278 -> 294 ;
295 [label="gini = 0.0000\nsamples = 78\nvalue = [  0.  78.   0.   0.   0.   0.]", shape="box"] ;
3 -> 295 ;
296 [label="length <= 12.5000\ngini = 0.518444119795\nsamples = 296", shape="box"] ;
2 -> 296 ;
297 [label="sw_how <= 0.5000\ngini = 0.758377425044\nsamples = 63", shape="box"] ;
296 -> 297 ;
298 [label="p_is <= 0.5000\ngini = 0.712802768166\nsamples = 51", shape="box"] ;
297 -> 298 ;
299 [label="p_of <= 0.5000\ngini = 0.6944\nsamples = 25", shape="box"] ;
298 -> 299 ;
300 [label="p_what <= 0.5000\ngini = 0.653739612188\nsamples = 19", shape="box"] ;
299 -> 300 ;
301 [label="gini = 0.6400\nsamples = 5\nvalue = [ 0.  2.  2.  0.  1.  0.]", shape="box"] ;
300 -> 301 ;
302 [label="length <= 10.5000\ngini = 0.602040816327\nsamples = 14", shape="box"] ;
300 -> 302 ;
303 [label="gini = 0.6250\nsamples = 8\nvalue = [ 0.  0.  4.  0.  2.  2.]", shape="box"] ;
302 -> 303 ;
304 [label="gini = 0.5000\nsamples = 6\nvalue = [ 0.  0.  4.  1.  1.  0.]", shape="box"] ;
302 -> 304 ;
305 [label="gini = 0.6111\nsamples = 6\nvalue = [ 0.  2.  1.  0.  3.  0.]", shape="box"] ;
299 -> 305 ;
306 [label="p_what_is <= 0.5000\ngini = 0.600591715976\nsamples = 26", shape="box"] ;
298 -> 306 ;
307 [label="p_in <= 0.5000\ngini = 0.493074792244\nsamples = 19", shape="box"] ;
306 -> 307 ;
308 [label="gini = 0.2188\nsamples = 8\nvalue = [ 0.  0.  0.  1.  7.  0.]", shape="box"] ;
307 -> 308 ;
309 [label="sw_what <= 0.5000\ngini = 0.628099173554\nsamples = 11", shape="box"] ;
307 -> 309 ;
310 [label="gini = 0.5000\nsamples = 6\nvalue = [ 0.  0.  1.  1.  4.  0.]", shape="box"] ;
309 -> 310 ;
311 [label="gini = 0.6400\nsamples = 5\nvalue = [ 0.  2.  0.  1.  2.  0.]", shape="box"] ;
309 -> 311 ;
312 [label="gini = 0.6939\nsamples = 7\nvalue = [ 0.  0.  1.  3.  2.  1.]", shape="box"] ;
306 -> 312 ;
313 [label="sw_how_many <= 0.5000\ngini = 0.402777777778\nsamples = 12", shape="box"] ;
297 -> 313 ;
314 [label="gini = 0.5714\nsamples = 7\nvalue = [ 0.  0.  0.  2.  1.  4.]", shape="box"] ;
313 -> 314 ;
315 [label="gini = 0.0000\nsamples = 5\nvalue = [ 0.  0.  0.  0.  0.  5.]", shape="box"] ;
313 -> 315 ;
316 [label="length <= 14.5000\ngini = 0.349205179686\nsamples = 233", shape="box"] ;
296 -> 316 ;
317 [label="p_of <= 0.5000\ngini = 0.102704843821\nsamples = 188", shape="box"] ;
316 -> 317 ;
318 [label="p_by <= 0.5000\ngini = 0.0642001851354\nsamples = 183", shape="box"] ;
317 -> 318 ;
319 [label="p_most <= 0.5000\ngini = 0.122453598914\nsamples = 94", shape="box"] ;
318 -> 319 ;
320 [label="gini = 0.7400\nsamples = 10\nvalue = [ 0.  1.  1.  2.  2.  4.]", shape="box"] ;
319 -> 320 ;
321 [label="gini = 0.0000\nsamples = 84\nvalue = [  0.   0.   0.   0.   0.  84.]", shape="box"] ;
319 -> 321 ;
322 [label="gini = 0.0000\nsamples = 89\nvalue = [  0.   0.   0.   0.   0.  89.]", shape="box"] ;
318 -> 322 ;
323 [label="gini = 0.6400\nsamples = 5\nvalue = [ 0.  0.  2.  0.  2.  1.]", shape="box"] ;
317 -> 323 ;
324 [label="p_how <= 0.5000\ngini = 0.727901234568\nsamples = 45", shape="box"] ;
316 -> 324 ;
325 [label="p_way <= 0.5000\ngini = 0.680055401662\nsamples = 38", shape="box"] ;
324 -> 325 ;
326 [label="length <= 16.5000\ngini = 0.672216441207\nsamples = 31", shape="box"] ;
325 -> 326 ;
327 [label="p_is <= 0.5000\ngini = 0.644628099174\nsamples = 11", shape="box"] ;
326 -> 327 ;
328 [label="gini = 0.6667\nsamples = 6\nvalue = [ 0.  0.  1.  3.  1.  1.]", shape="box"] ;
327 -> 328 ;
329 [label="gini = 0.3200\nsamples = 5\nvalue = [ 0.  0.  4.  1.  0.  0.]", shape="box"] ;
327 -> 329 ;
330 [label="p_on <= 0.5000\ngini = 0.48\nsamples = 20", shape="box"] ;
326 -> 330 ;
331 [label="gini = 0.6111\nsamples = 6\nvalue = [ 0.  0.  1.  2.  3.  0.]", shape="box"] ;
330 -> 331 ;
332 [label="p_of <= 0.5000\ngini = 0.367346938776\nsamples = 14", shape="box"] ;
330 -> 332 ;
333 [label="gini = 0.6122\nsamples = 7\nvalue = [ 0.  1.  0.  1.  4.  1.]", shape="box"] ;
332 -> 333 ;
334 [label="gini = 0.0000\nsamples = 7\nvalue = [ 0.  0.  0.  0.  7.  0.]", shape="box"] ;
332 -> 334 ;
335 [label="gini = 0.0000\nsamples = 7\nvalue = [ 0.  0.  0.  7.  0.  0.]", shape="box"] ;
325 -> 335 ;
336 [label="gini = 0.2449\nsamples = 7\nvalue = [ 0.  0.  0.  1.  0.  6.]", shape="box"] ;
324 -> 336 ;
337 [label="r_loc <= 0.5000\ngini = 0.0169479143838\nsamples = 117", shape="box"] ;
1 -> 337 ;
338 [label="gini = 0.0000\nsamples = 85\nvalue = [  0.  85.   0.   0.   0.   0.]", shape="box"] ;
337 -> 338 ;
339 [label="p_of <= 0.5000\ngini = 0.060546875\nsamples = 32", shape="box"] ;
337 -> 339 ;
340 [label="gini = 0.2778\nsamples = 6\nvalue = [ 0.  5.  0.  0.  1.  0.]", shape="box"] ;
339 -> 340 ;
341 [label="gini = 0.0000\nsamples = 26\nvalue = [  0.  26.   0.   0.   0.   0.]", shape="box"] ;
339 -> 341 ;
342 [label="r_abbr <= 0.5000\ngini = 0.37611585003\nsamples = 213", shape="box"] ;
0 -> 342 ;
343 [label="p_for <= 0.5000\ngini = 0.417339088009\nsamples = 73", shape="box"] ;
342 -> 343 ;
344 [label="p_mean_ <= 0.5000\ngini = 0.275234131113\nsamples = 62", shape="box"] ;
343 -> 344 ;
345 [label="p_doesn't <= 0.5000\ngini = 0.0370238519046\nsamples = 53", shape="box"] ;
344 -> 345 ;
346 [label="p_in <= 0.5000\ngini = 0.104938271605\nsamples = 18", shape="box"] ;
345 -> 346 ;
347 [label="gini = 0.3200\nsamples = 5\nvalue = [ 0.  0.  4.  0.  1.  0.]", shape="box"] ;
346 -> 347 ;
348 [label="gini = 0.0000\nsamples = 13\nvalue = [  0.   0.  13.   0.   0.   0.]", shape="box"] ;
346 -> 348 ;
349 [label="gini = 0.0000\nsamples = 35\nvalue = [  0.   0.  35.   0.   0.   0.]", shape="box"] ;
345 -> 349 ;
350 [label="gini = 0.0000\nsamples = 9\nvalue = [ 9.  0.  0.  0.  0.  0.]", shape="box"] ;
344 -> 350 ;
351 [label="gini = 0.0000\nsamples = 11\nvalue = [ 11.   0.   0.   0.   0.   0.]", shape="box"] ;
343 -> 351 ;
352 [label="gini = 0.0000\nsamples = 140\nvalue = [ 140.    0.    0.    0.    0.    0.]", shape="box"] ;
342 -> 352 ;
}