digraph Tree {
0 [label="r_abbr <= 0.5000\ngini = 0.8280385\nsamples = 2000", shape="box"] ;
1 [label="p_who <= 0.5000\ngini = 0.805371051657\nsamples = 1742", shape="box"] ;
0 -> 1 ;
2 [label="r_num <= 0.5000\ngini = 0.800797258724\nsamples = 1604", shape="box"] ;
1 -> 2 ;
3 [label="p_is_that <= 0.5000\ngini = 0.792494295138\nsamples = 1316", shape="box"] ;
2 -> 3 ;
4 [label="p_how_many <= 0.5000\ngini = 0.782520924624\nsamples = 1238", shape="box"] ;
3 -> 4 ;
5 [label="p_capital <= 0.5000\ngini = 0.774378162058\nsamples = 1197", shape="box"] ;
4 -> 5 ;
6 [label="p_where <= 0.5000\ngini = 0.775587599704\nsamples = 1148", shape="box"] ;
5 -> 6 ;
7 [label="p_way_to <= 0.5000\ngini = 0.774631362847\nsamples = 1081", shape="box"] ;
6 -> 7 ;
8 [label="p_how <= 0.5000\ngini = 0.779912185974\nsamples = 1027", shape="box"] ;
7 -> 8 ;
9 [label="p_when <= 0.5000\ngini = 0.776462425143\nsamples = 933", shape="box"] ;
8 -> 9 ;
10 [label="p_what_is <= 0.5000\ngini = 0.766453847679\nsamples = 901", shape="box"] ;
9 -> 10 ;
11 [label="p_why <= 0.5000\ngini = 0.754536652159\nsamples = 715", shape="box"] ;
10 -> 11 ;
12 [label="p_visit <= 0.5000\ngini = 0.747335803556\nsamples = 689", shape="box"] ;
11 -> 12 ;
13 [label="p_doesn't <= 0.5000\ngini = 0.746667159394\nsamples = 658", shape="box"] ;
12 -> 13 ;
14 [label="p_place <= 0.5000\ngini = 0.735096544064\nsamples = 612", shape="box"] ;
13 -> 14 ;
15 [label="p_city <= 0.5000\ngini = 0.726968281518\nsamples = 586", shape="box"] ;
14 -> 15 ;
16 [label="p_she <= 0.5000\ngini = 0.719222119575\nsamples = 567", shape="box"] ;
15 -> 16 ;
17 [label="p_mean_ <= 0.5000\ngini = 0.712493513629\nsamples = 543", shape="box"] ;
16 -> 17 ;
18 [label="p_year <= 0.5000\ngini = 0.699297959184\nsamples = 525", shape="box"] ;
17 -> 18 ;
19 [label="p_is_there <= 0.5000\ngini = 0.686943483276\nsamples = 510", shape="box"] ;
18 -> 19 ;
20 [label="p_name <= 0.5000\ngini = 0.722290039062\nsamples = 384", shape="box"] ;
19 -> 20 ;
21 [label="p_does <= 0.5000\ngini = 0.727379591837\nsamples = 350", shape="box"] ;
20 -> 21 ;
22 [label="p_what <= 0.5000\ngini = 0.714426678267\nsamples = 307", shape="box"] ;
21 -> 22 ;
23 [label="p_he <= 0.5000\ngini = 0.557291666667\nsamples = 48", shape="box"] ;
22 -> 23 ;
24 [label="gini = 0.4444\nsamples = 18\nvalue = [  0.   3.   0.   1.  13.   1.]", shape="box"] ;
23 -> 24 ;
25 [label="p_which <= 0.5000\ngini = 0.504444444444\nsamples = 30", shape="box"] ;
23 -> 25 ;
26 [label="gini = 0.2604\nsamples = 13\nvalue = [  0.  11.   0.   0.   2.   0.]", shape="box"] ;
25 -> 26 ;
27 [label="gini = 0.5467\nsamples = 17\nvalue = [ 0.  7.  1.  0.  9.  0.]", shape="box"] ;
25 -> 27 ;
28 [label="p_is <= 0.5000\ngini = 0.724050029069\nsamples = 259", shape="box"] ;
22 -> 28 ;
29 [label="p_of <= 0.5000\ngini = 0.711124943413\nsamples = 188", shape="box"] ;
28 -> 29 ;
30 [label="p_for <= 0.5000\ngini = 0.703386054801\nsamples = 134", shape="box"] ;
29 -> 30 ;
31 [label="p_in <= 0.5000\ngini = 0.691207075963\nsamples = 124", shape="box"] ;
30 -> 31 ;
32 [label="p_he <= 0.5000\ngini = 0.719444444444\nsamples = 60", shape="box"] ;
31 -> 32 ;
33 [label="gini = 0.6778\nsamples = 30\nvalue = [  0.   2.   5.  14.   8.   1.]", shape="box"] ;
32 -> 33 ;
34 [label="p_on <= 0.5000\ngini = 0.686666666667\nsamples = 30", shape="box"] ;
32 -> 34 ;
35 [label="gini = 0.6759\nsamples = 19\nvalue = [ 0.  4.  2.  4.  9.  0.]", shape="box"] ;
34 -> 35 ;
36 [label="gini = 0.6777\nsamples = 11\nvalue = [ 0.  2.  3.  1.  5.  0.]", shape="box"] ;
34 -> 36 ;
37 [label="p_he <= 0.5000\ngini = 0.64306640625\nsamples = 64", shape="box"] ;
31 -> 37 ;
38 [label="p_on <= 0.5000\ngini = 0.552083333333\nsamples = 24", shape="box"] ;
37 -> 38 ;
39 [label="gini = 0.5408\nsamples = 14\nvalue = [ 0.  2.  1.  2.  9.  0.]", shape="box"] ;
38 -> 39 ;
40 [label="gini = 0.5600\nsamples = 10\nvalue = [ 0.  2.  0.  2.  6.  0.]", shape="box"] ;
38 -> 40 ;
41 [label="p_on <= 0.5000\ngini = 0.67875\nsamples = 40", shape="box"] ;
37 -> 41 ;
42 [label="gini = 0.6944\nsamples = 25\nvalue = [  0.   3.   6.   5.  11.   0.]", shape="box"] ;
41 -> 42 ;
43 [label="gini = 0.6400\nsamples = 15\nvalue = [ 0.  2.  2.  3.  8.  0.]", shape="box"] ;
41 -> 43 ;
44 [label="gini = 0.7000\nsamples = 10\nvalue = [ 0.  4.  0.  3.  2.  1.]", shape="box"] ;
30 -> 44 ;
45 [label="p_he <= 0.5000\ngini = 0.698216735254\nsamples = 54", shape="box"] ;
29 -> 45 ;
46 [label="gini = 0.2917\nsamples = 12\nvalue = [  0.   0.   0.   1.  10.   1.]", shape="box"] ;
45 -> 46 ;
47 [label="p_on <= 0.5000\ngini = 0.756235827664\nsamples = 42", shape="box"] ;
45 -> 47 ;
48 [label="p_in <= 0.5000\ngini = 0.765625\nsamples = 32", shape="box"] ;
47 -> 48 ;
49 [label="gini = 0.7188\nsamples = 16\nvalue = [ 0.  1.  3.  1.  6.  5.]", shape="box"] ;
48 -> 49 ;
50 [label="gini = 0.7734\nsamples = 16\nvalue = [ 0.  2.  3.  4.  5.  2.]", shape="box"] ;
48 -> 50 ;
51 [label="gini = 0.6800\nsamples = 10\nvalue = [ 0.  2.  1.  1.  5.  1.]", shape="box"] ;
47 -> 51 ;
52 [label="p_he <= 0.5000\ngini = 0.724856179329\nsamples = 71", shape="box"] ;
28 -> 52 ;
53 [label="p_in <= 0.5000\ngini = 0.756944444444\nsamples = 24", shape="box"] ;
52 -> 53 ;
54 [label="gini = 0.7101\nsamples = 13\nvalue = [ 0.  4.  2.  2.  5.  0.]", shape="box"] ;
53 -> 54 ;
55 [label="gini = 0.7769\nsamples = 11\nvalue = [ 0.  3.  2.  3.  2.  1.]", shape="box"] ;
53 -> 55 ;
56 [label="p_on <= 0.5000\ngini = 0.685377999095\nsamples = 47", shape="box"] ;
52 -> 56 ;
57 [label="p_of <= 0.5000\ngini = 0.672153635117\nsamples = 27", shape="box"] ;
56 -> 57 ;
58 [label="gini = 0.6133\nsamples = 15\nvalue = [ 0.  1.  6.  0.  7.  1.]", shape="box"] ;
57 -> 58 ;
59 [label="gini = 0.7083\nsamples = 12\nvalue = [ 0.  3.  4.  1.  4.  0.]", shape="box"] ;
57 -> 59 ;
60 [label="gini = 0.6500\nsamples = 20\nvalue = [ 0.  7.  3.  0.  9.  1.]", shape="box"] ;
56 -> 60 ;
61 [label="p_what <= 0.5000\ngini = 0.712817739319\nsamples = 43", shape="box"] ;
21 -> 61 ;
62 [label="gini = 0.3628\nsamples = 21\nvalue = [  5.   0.  16.   0.   0.   0.]", shape="box"] ;
61 -> 62 ;
63 [label="gini = 0.5496\nsamples = 22\nvalue = [  0.   2.   1.   4.  14.   1.]", shape="box"] ;
61 -> 63 ;
64 [label="p_of <= 0.5000\ngini = 0.524221453287\nsamples = 34", shape="box"] ;
20 -> 64 ;
65 [label="p_what <= 0.5000\ngini = 0.525519848771\nsamples = 23", shape="box"] ;
64 -> 65 ;
66 [label="gini = 0.4959\nsamples = 11\nvalue = [ 0.  6.  0.  0.  5.  0.]", shape="box"] ;
65 -> 66 ;
67 [label="gini = 0.5417\nsamples = 12\nvalue = [ 0.  7.  1.  0.  4.  0.]", shape="box"] ;
65 -> 67 ;
68 [label="gini = 0.4959\nsamples = 11\nvalue = [ 0.  5.  0.  0.  6.  0.]", shape="box"] ;
64 -> 68 ;
69 [label="p_in <= 0.5000\ngini = 0.513605442177\nsamples = 126", shape="box"] ;
19 -> 69 ;
70 [label="p_for <= 0.5000\ngini = 0.556813037574\nsamples = 47", shape="box"] ;
69 -> 70 ;
71 [label="p_on <= 0.5000\ngini = 0.463648834019\nsamples = 27", shape="box"] ;
70 -> 71 ;
72 [label="gini = 0.4388\nsamples = 14\nvalue = [  0.   0.   1.   3.  10.   0.]", shape="box"] ;
71 -> 72 ;
73 [label="gini = 0.4734\nsamples = 13\nvalue = [ 0.  2.  0.  2.  9.  0.]", shape="box"] ;
71 -> 73 ;
74 [label="p_is_there_a <= 0.5000\ngini = 0.615\nsamples = 20", shape="box"] ;
70 -> 74 ;
75 [label="gini = 0.5800\nsamples = 10\nvalue = [ 0.  1.  0.  5.  4.  0.]", shape="box"] ;
74 -> 75 ;
76 [label="gini = 0.6200\nsamples = 10\nvalue = [ 0.  2.  0.  3.  5.  0.]", shape="box"] ;
74 -> 76 ;
77 [label="p_on <= 0.5000\ngini = 0.465310046467\nsamples = 79", shape="box"] ;
69 -> 77 ;
78 [label="p_is_there_a <= 0.5000\ngini = 0.463648834019\nsamples = 54", shape="box"] ;
77 -> 78 ;
79 [label="gini = 0.3711\nsamples = 32\nvalue = [  0.   1.   3.   3.  25.   0.]", shape="box"] ;
78 -> 79 ;
80 [label="gini = 0.5455\nsamples = 22\nvalue = [  0.   1.   7.   1.  13.   0.]", shape="box"] ;
78 -> 80 ;
81 [label="gini = 0.4480\nsamples = 25\nvalue = [  0.   2.   1.   4.  18.   0.]", shape="box"] ;
77 -> 81 ;
82 [label="gini = 0.4356\nsamples = 15\nvalue = [  0.   1.   0.   2.   1.  11.]", shape="box"] ;
18 -> 82 ;
83 [label="gini = 0.4753\nsamples = 18\nvalue = [  7.   0.   0.  11.   0.   0.]", shape="box"] ;
17 -> 83 ;
84 [label="p_in <= 0.5000\ngini = 0.350694444444\nsamples = 24", shape="box"] ;
16 -> 84 ;
85 [label="gini = 0.1327\nsamples = 14\nvalue = [  0.  13.   0.   1.   0.   0.]", shape="box"] ;
84 -> 85 ;
86 [label="gini = 0.5600\nsamples = 10\nvalue = [ 0.  6.  0.  2.  2.  0.]", shape="box"] ;
84 -> 86 ;
87 [label="gini = 0.0997\nsamples = 19\nvalue = [  0.   0.  18.   0.   1.   0.]", shape="box"] ;
15 -> 87 ;
88 [label="gini = 0.0000\nsamples = 26\nvalue = [  0.   0.  26.   0.   0.   0.]", shape="box"] ;
14 -> 88 ;
89 [label="p_in <= 0.5000\ngini = 0.381852551985\nsamples = 46", shape="box"] ;
13 -> 89 ;
90 [label="gini = 0.5165\nsamples = 22\nvalue = [  8.   0.  13.   0.   1.   0.]", shape="box"] ;
89 -> 90 ;
91 [label="gini = 0.1562\nsamples = 24\nvalue = [  1.   0.  22.   1.   0.   0.]", shape="box"] ;
89 -> 91 ;
92 [label="p_on <= 0.5000\ngini = 0.0624349635796\nsamples = 31", shape="box"] ;
12 -> 92 ;
93 [label="gini = 0.1107\nsamples = 17\nvalue = [  0.   0.  16.   1.   0.   0.]", shape="box"] ;
92 -> 93 ;
94 [label="gini = 0.0000\nsamples = 14\nvalue = [  0.   0.  14.   0.   0.   0.]", shape="box"] ;
92 -> 94 ;
95 [label="p_in <= 0.5000\ngini = 0.0739644970414\nsamples = 26", shape="box"] ;
11 -> 95 ;
96 [label="gini = 0.0000\nsamples = 16\nvalue = [  0.   0.   0.  16.   0.   0.]", shape="box"] ;
95 -> 96 ;
97 [label="gini = 0.1800\nsamples = 10\nvalue = [ 0.  0.  1.  9.  0.  0.]", shape="box"] ;
95 -> 97 ;
98 [label="p_he <= 0.5000\ngini = 0.672621112267\nsamples = 186", shape="box"] ;
10 -> 98 ;
99 [label="p_of <= 0.5000\ngini = 0.411836734694\nsamples = 70", shape="box"] ;
98 -> 99 ;
100 [label="p_in <= 0.5000\ngini = 0.274633725941\nsamples = 59", shape="box"] ;
99 -> 100 ;
101 [label="gini = 0.3131\nsamples = 45\nvalue = [  2.   1.   0.  37.   4.   1.]", shape="box"] ;
100 -> 101 ;
102 [label="gini = 0.1327\nsamples = 14\nvalue = [  0.   0.   0.  13.   0.   1.]", shape="box"] ;
100 -> 102 ;
103 [label="gini = 0.2975\nsamples = 11\nvalue = [ 0.  0.  0.  2.  9.  0.]", shape="box"] ;
99 -> 103 ;
104 [label="p_origin_of <= 0.5000\ngini = 0.751040428062\nsamples = 116", shape="box"] ;
98 -> 104 ;
105 [label="p_name <= 0.5000\ngini = 0.764988662132\nsamples = 105", shape="box"] ;
104 -> 105 ;
106 [label="p_for <= 0.5000\ngini = 0.744602954172\nsamples = 89", shape="box"] ;
105 -> 106 ;
107 [label="p_of <= 0.5000\ngini = 0.730111768573\nsamples = 78", shape="box"] ;
106 -> 107 ;
108 [label="p_in <= 0.5000\ngini = 0.721172022684\nsamples = 46", shape="box"] ;
107 -> 108 ;
109 [label="gini = 0.6240\nsamples = 22\nvalue = [  0.   0.   2.  12.   5.   3.]", shape="box"] ;
108 -> 109 ;
110 [label="gini = 0.6632\nsamples = 24\nvalue = [  0.   0.  10.   3.   9.   2.]", shape="box"] ;
108 -> 110 ;
111 [label="p_in <= 0.5000\ngini = 0.658203125\nsamples = 32", shape="box"] ;
107 -> 111 ;
112 [label="gini = 0.6667\nsamples = 15\nvalue = [ 0.  0.  1.  4.  3.  7.]", shape="box"] ;
111 -> 112 ;
113 [label="gini = 0.6021\nsamples = 17\nvalue = [ 0.  0.  0.  9.  3.  5.]", shape="box"] ;
111 -> 113 ;
114 [label="gini = 0.6281\nsamples = 11\nvalue = [ 2.  0.  0.  0.  5.  4.]", shape="box"] ;
106 -> 114 ;
115 [label="gini = 0.6719\nsamples = 16\nvalue = [ 0.  5.  3.  1.  7.  0.]", shape="box"] ;
105 -> 115 ;
116 [label="gini = 0.0000\nsamples = 11\nvalue = [  0.   0.   0.  11.   0.   0.]", shape="box"] ;
104 -> 116 ;
117 [label="p_in <= 0.5000\ngini = 0.275390625\nsamples = 32", shape="box"] ;
9 -> 117 ;
118 [label="gini = 0.0000\nsamples = 16\nvalue = [  0.   0.   0.   0.   0.  16.]", shape="box"] ;
117 -> 118 ;
119 [label="gini = 0.4766\nsamples = 16\nvalue = [  0.   3.   0.   2.   0.  11.]", shape="box"] ;
117 -> 119 ;
120 [label="p_how_do <= 0.5000\ngini = 0.534857401539\nsamples = 94", shape="box"] ;
8 -> 120 ;
121 [label="p_how_can <= 0.5000\ngini = 0.645065398335\nsamples = 58", shape="box"] ;
120 -> 121 ;
122 [label="p_is <= 0.5000\ngini = 0.643730194658\nsamples = 47", shape="box"] ;
121 -> 122 ;
123 [label="p_in <= 0.5000\ngini = 0.614795918367\nsamples = 28", shape="box"] ;
122 -> 123 ;
124 [label="gini = 0.5625\nsamples = 16\nvalue = [  0.   1.   1.   3.   1.  10.]", shape="box"] ;
123 -> 124 ;
125 [label="gini = 0.6528\nsamples = 12\nvalue = [ 0.  3.  0.  2.  1.  6.]", shape="box"] ;
123 -> 125 ;
126 [label="gini = 0.6205\nsamples = 19\nvalue = [ 0.  0.  0.  8.  3.  8.]", shape="box"] ;
122 -> 126 ;
127 [label="gini = 0.0000\nsamples = 11\nvalue = [  0.   0.   0.  11.   0.   0.]", shape="box"] ;
121 -> 127 ;
128 [label="p_in <= 0.5000\ngini = 0.054012345679\nsamples = 36", shape="box"] ;
120 -> 128 ;
129 [label="gini = 0.0000\nsamples = 20\nvalue = [  0.   0.   0.  20.   0.   0.]", shape="box"] ;
128 -> 129 ;
130 [label="gini = 0.1172\nsamples = 16\nvalue = [  0.   0.   0.  15.   1.   0.]", shape="box"] ;
128 -> 130 ;
131 [label="p_on <= 0.5000\ngini = 0.139231824417\nsamples = 54", shape="box"] ;
7 -> 131 ;
132 [label="p_in <= 0.5000\ngini = 0.191326530612\nsamples = 28", shape="box"] ;
131 -> 132 ;
133 [label="gini = 0.1172\nsamples = 16\nvalue = [  0.   0.   1.  15.   0.   0.]", shape="box"] ;
132 -> 133 ;
134 [label="gini = 0.2778\nsamples = 12\nvalue = [  0.   0.   2.  10.   0.   0.]", shape="box"] ;
132 -> 134 ;
135 [label="p_is_there_a <= 0.5000\ngini = 0.0739644970414\nsamples = 26", shape="box"] ;
131 -> 135 ;
136 [label="gini = 0.1653\nsamples = 11\nvalue = [  0.   0.   0.  10.   1.   0.]", shape="box"] ;
135 -> 136 ;
137 [label="gini = 0.0000\nsamples = 15\nvalue = [  0.   0.   0.  15.   0.   0.]", shape="box"] ;
135 -> 137 ;
138 [label="p_is_there <= 0.5000\ngini = 0.282913789263\nsamples = 67", shape="box"] ;
6 -> 138 ;
139 [label="p_in <= 0.5000\ngini = 0.105123966942\nsamples = 55", shape="box"] ;
138 -> 139 ;
140 [label="gini = 0.0624\nsamples = 31\nvalue = [  0.   0.  30.   1.   0.   0.]", shape="box"] ;
139 -> 140 ;
141 [label="gini = 0.1562\nsamples = 24\nvalue = [  0.   0.  22.   0.   1.   1.]", shape="box"] ;
139 -> 141 ;
142 [label="gini = 0.4444\nsamples = 12\nvalue = [ 0.  0.  4.  0.  8.  0.]", shape="box"] ;
138 -> 142 ;
143 [label="p_in <= 0.5000\ngini = 0.0399833402749\nsamples = 49", shape="box"] ;
5 -> 143 ;
144 [label="gini = 0.0000\nsamples = 28\nvalue = [  0.   0.  28.   0.   0.   0.]", shape="box"] ;
143 -> 144 ;
145 [label="gini = 0.0907\nsamples = 21\nvalue = [  0.   1.  20.   0.   0.   0.]", shape="box"] ;
143 -> 145 ;
146 [label="gini = 0.0000\nsamples = 41\nvalue = [  0.   0.   0.   0.   0.  41.]", shape="box"] ;
4 -> 146 ;
147 [label="gini = 0.0000\nsamples = 78\nvalue = [  0.  78.   0.   0.   0.   0.]", shape="box"] ;
3 -> 147 ;
148 [label="p_in <= 0.5000\ngini = 0.505811149691\nsamples = 288", shape="box"] ;
2 -> 148 ;
149 [label="p_of <= 0.5000\ngini = 0.738845925045\nsamples = 41", shape="box"] ;
148 -> 149 ;
150 [label="p_is <= 0.5000\ngini = 0.7424\nsamples = 25", shape="box"] ;
149 -> 150 ;
151 [label="gini = 0.7574\nsamples = 13\nvalue = [ 0.  2.  4.  4.  2.  1.]", shape="box"] ;
150 -> 151 ;
152 [label="gini = 0.6806\nsamples = 12\nvalue = [ 0.  0.  2.  5.  4.  1.]", shape="box"] ;
150 -> 152 ;
153 [label="gini = 0.6641\nsamples = 16\nvalue = [ 0.  1.  1.  4.  8.  2.]", shape="box"] ;
149 -> 153 ;
154 [label="p_of <= 0.5000\ngini = 0.38033732728\nsamples = 247", shape="box"] ;
148 -> 154 ;
155 [label="p_is <= 0.5000\ngini = 0.275261748235\nsamples = 222", shape="box"] ;
154 -> 155 ;
156 [label="p_how <= 0.5000\ngini = 0.692033293698\nsamples = 29", shape="box"] ;
155 -> 156 ;
157 [label="gini = 0.7128\nsamples = 17\nvalue = [ 0.  1.  6.  1.  6.  3.]", shape="box"] ;
156 -> 157 ;
158 [label="gini = 0.2917\nsamples = 12\nvalue = [  0.   0.   0.   1.   1.  10.]", shape="box"] ;
156 -> 158 ;
159 [label="p_most <= 0.5000\ngini = 0.174877177911\nsamples = 193", shape="box"] ;
155 -> 159 ;
160 [label="p_by <= 0.5000\ngini = 0.29374631765\nsamples = 109", shape="box"] ;
159 -> 160 ;
161 [label="gini = 0.6870\nsamples = 19\nvalue = [ 0.  0.  3.  6.  8.  2.]", shape="box"] ;
160 -> 161 ;
162 [label="p_on <= 0.5000\ngini = 0.021975308642\nsamples = 90", shape="box"] ;
160 -> 162 ;
163 [label="gini = 0.0000\nsamples = 74\nvalue = [  0.   0.   0.   0.   0.  74.]", shape="box"] ;
162 -> 163 ;
164 [label="gini = 0.1172\nsamples = 16\nvalue = [  0.   1.   0.   0.   0.  15.]", shape="box"] ;
162 -> 164 ;
165 [label="gini = 0.0000\nsamples = 84\nvalue = [  0.   0.   0.   0.   0.  84.]", shape="box"] ;
159 -> 165 ;
166 [label="p_what <= 0.5000\ngini = 0.7648\nsamples = 25", shape="box"] ;
154 -> 166 ;
167 [label="gini = 0.7361\nsamples = 12\nvalue = [ 0.  0.  4.  3.  3.  2.]", shape="box"] ;
166 -> 167 ;
168 [label="gini = 0.6982\nsamples = 13\nvalue = [ 0.  3.  1.  1.  6.  2.]", shape="box"] ;
166 -> 168 ;
169 [label="p_on <= 0.5000\ngini = 0.176748582231\nsamples = 138", shape="box"] ;
1 -> 169 ;
170 [label="p_who_was <= 0.5000\ngini = 0.112734045682\nsamples = 101", shape="box"] ;
169 -> 170 ;
171 [label="p_is <= 0.5000\ngini = 0.141964428777\nsamples = 79", shape="box"] ;
170 -> 171 ;
172 [label="p_in <= 0.5000\ngini = 0.118923611111\nsamples = 48", shape="box"] ;
171 -> 172 ;
173 [label="gini = 0.1884\nsamples = 19\nvalue = [  0.  17.   0.   2.   0.   0.]", shape="box"] ;
172 -> 173 ;
174 [label="gini = 0.0666\nsamples = 29\nvalue = [  0.  28.   0.   0.   1.   0.]", shape="box"] ;
172 -> 174 ;
175 [label="p_of <= 0.5000\ngini = 0.174817898023\nsamples = 31", shape="box"] ;
171 -> 175 ;
176 [label="gini = 0.2659\nsamples = 19\nvalue = [  0.  16.   0.   3.   0.   0.]", shape="box"] ;
175 -> 176 ;
177 [label="gini = 0.0000\nsamples = 12\nvalue = [  0.  12.   0.   0.   0.   0.]", shape="box"] ;
175 -> 177 ;
178 [label="gini = 0.0000\nsamples = 22\nvalue = [  0.  22.   0.   0.   0.   0.]", shape="box"] ;
170 -> 178 ;
179 [label="p_is <= 0.5000\ngini = 0.333089846603\nsamples = 37", shape="box"] ;
169 -> 179 ;
180 [label="p_in <= 0.5000\ngini = 0.238185255198\nsamples = 23", shape="box"] ;
179 -> 180 ;
181 [label="gini = 0.1528\nsamples = 12\nvalue = [  0.  11.   0.   0.   0.   1.]", shape="box"] ;
180 -> 181 ;
182 [label="gini = 0.3140\nsamples = 11\nvalue = [ 0.  9.  1.  1.  0.  0.]", shape="box"] ;
180 -> 182 ;
183 [label="gini = 0.4592\nsamples = 14\nvalue = [  0.  10.   1.   0.   2.   1.]", shape="box"] ;
179 -> 183 ;
184 [label="p_is_there <= 0.5000\ngini = 0.474310438075\nsamples = 258", shape="box"] ;
0 -> 184 ;
185 [label="p_does <= 0.5000\ngini = 0.244172335601\nsamples = 210", shape="box"] ;
184 -> 185 ;
186 [label="p_what_is <= 0.5000\ngini = 0.624025799516\nsamples = 61", shape="box"] ;
185 -> 186 ;
187 [label="p_in <= 0.5000\ngini = 0.7616\nsamples = 25", shape="box"] ;
186 -> 187 ;
188 [label="gini = 0.7500\nsamples = 12\nvalue = [ 1.  1.  1.  4.  1.  4.]", shape="box"] ;
187 -> 188 ;
189 [label="gini = 0.7337\nsamples = 13\nvalue = [ 0.  2.  0.  3.  4.  4.]", shape="box"] ;
187 -> 189 ;
190 [label="gini = 0.1065\nsamples = 36\nvalue = [ 34.   0.   0.   1.   1.   0.]", shape="box"] ;
186 -> 190 ;
191 [label="p_mean_ <= 0.5000\ngini = 0.0265753794874\nsamples = 149", shape="box"] ;
185 -> 191 ;
192 [label="p_doesn't <= 0.5000\ngini = 0.0543981481481\nsamples = 72", shape="box"] ;
191 -> 192 ;
193 [label="p_in <= 0.5000\ngini = 0.09625\nsamples = 40", shape="box"] ;
192 -> 193 ;
194 [label="p_on <= 0.5000\ngini = 0.0713305898491\nsamples = 27", shape="box"] ;
193 -> 194 ;
195 [label="gini = 0.0000\nsamples = 13\nvalue = [ 13.   0.   0.   0.   0.   0.]", shape="box"] ;
194 -> 195 ;
196 [label="gini = 0.1327\nsamples = 14\nvalue = [ 13.   0.   0.   1.   0.   0.]", shape="box"] ;
194 -> 196 ;
197 [label="gini = 0.1420\nsamples = 13\nvalue = [ 12.   0.   0.   0.   0.   1.]", shape="box"] ;
193 -> 197 ;
198 [label="gini = 0.0000\nsamples = 32\nvalue = [ 32.   0.   0.   0.   0.   0.]", shape="box"] ;
192 -> 198 ;
199 [label="gini = 0.0000\nsamples = 77\nvalue = [ 77.   0.   0.   0.   0.   0.]", shape="box"] ;
191 -> 199 ;
200 [label="p_on <= 0.5000\ngini = 0.538194444444\nsamples = 48", shape="box"] ;
184 -> 200 ;
201 [label="p_in <= 0.5000\ngini = 0.6272\nsamples = 25", shape="box"] ;
200 -> 201 ;
202 [label="gini = 0.5000\nsamples = 12\nvalue = [ 0.  0.  0.  6.  6.  0.]", shape="box"] ;
201 -> 202 ;
203 [label="gini = 0.6864\nsamples = 13\nvalue = [ 0.  2.  2.  3.  6.  0.]", shape="box"] ;
201 -> 203 ;
204 [label="p_is_there_a <= 0.5000\ngini = 0.362948960302\nsamples = 23", shape="box"] ;
200 -> 204 ;
205 [label="gini = 0.4600\nsamples = 10\nvalue = [ 0.  0.  2.  1.  7.  0.]", shape="box"] ;
204 -> 205 ;
206 [label="gini = 0.2604\nsamples = 13\nvalue = [  0.   0.   0.   2.  11.   0.]", shape="box"] ;
204 -> 206 ;
}